0.19886183738708496
0.42360368371009827
0.0890626534819603
-0.47934675216674805
-0.02265263721346855
0.30227991938591003
0.43202266097068787
-0.10446043312549591
-0.2936325669288635
-0.4634844958782196
0.2114301174879074
0.4402071535587311
0.206583172082901
-0.587415337562561
-0.4027792811393738
-0.1463065892457962
0.4554450809955597
0.12418306618928909
-0.1970033496618271
-0.2511391043663025
-0.11891303956508636
0.23748140037059784
0.06159565597772598
-0.018838180229067802
-0.09543240070343018
0.030306408181786537
0.13233615458011627
-0.29164907336235046
-0.09936600923538208
-0.4836691915988922
0.04112947732210159
-0.044490259140729904
0.10562729835510254
-0.004138672724366188
-0.2843659818172455
0.2576020658016205
0.07112355530261993
0.24447984993457794
-0.24069665372371674
-0.17434941232204437
0.20122511684894562
0.3087191581726074
0.05054018273949623
-0.17826887965202332
-0.04446692019701004
-0.06861873716115952
0.3584754467010498
0.10823503881692886
0.02460225485265255
-0.19799481332302094
0.14159226417541504
-0.011820429936051369
0.031232867389917374
-0.08356252312660217
0.26312458515167236
-0.14761410653591156
-0.2374444603919983
-0.0850142166018486
-0.05289602279663086
-0.24537871778011322
-0.36664965748786926
-0.3723190128803253
-0.33777493238449097
-0.2830522656440735
-0.06541075557470322
0.04645533114671707
-0.23168133199214935
0.015138998627662659
0.10367833077907562
0.007130453363060951
-0.01365724764764309
0.21427065134048462
-0.03231469541788101
0.13507093489170074
0.15686637163162231
-0.30696627497673035
-0.0001432029966963455
0.2667738199234009
0.10348949581384659
-0.032827455550432205
-0.5054088830947876
0.2551189363002777
0.18158139288425446
0.06724395602941513
-0.005058640148490667
-0.6144810914993286
0.22183500230312347
0.46207714080810547
-0.053732652217149734
-0.011173623614013195
-0.5584918260574341
0.3058098554611206
0.29850009083747864
0.058855049312114716
-0.0786798819899559
-0.1841122806072235
0.166996031999588
0.04112476482987404
-0.09351301193237305
0.08657015115022659
-0.06511137634515762
-0.191560298204422
0.16247424483299255
-0.08128160983324051
-0.42169854044914246
0.09506313502788544
0.2064761519432068
0.16693280637264252
0.10936010628938675
-0.24874261021614075
-0.054314836859703064
0.15022927522659302
-0.061089422553777695
0.15977363288402557
-0.0735478326678276
0.07436563819646835
0.31117212772369385
-0.0845312848687172
-0.007812759838998318
-0.12511417269706726
-0.2179308533668518
0.25771766901016235
0.1246078610420227
0.0033926430623978376
0.12166129797697067
-0.03177783638238907
-0.06603787839412689
0.2509867250919342
0.09223580360412598
-0.20178622007369995
0.09755262732505798
0.15079446136951447
-0.03176385536789894
0.09023520350456238
0.15466152131557465
-0.09631753712892532
0.1831291764974594
0.27411457896232605
0.2600971460342407
0.0033879196271300316
-0.017517920583486557
0.1337905079126358
0.23693396151065826
0.24510546028614044
-0.05400849133729935
0.19657409191131592
0.22686584293842316
0.10831134021282196
-0.019466547295451164
-0.12004914879798889
0.02252339944243431
0.22766701877117157
-0.2914966940879822
-0.011766966432332993
0.28831982612609863
-0.11221068352460861
0.18855006992816925
-0.47124138474464417
-0.5123901963233948
-0.12193422764539719
0.029927870258688927
-0.012335432693362236
-0.3734907805919647
-0.28546658158302307
0.1600557118654251
0.014429816044867039
-0.12253814190626144
-0.06419780105352402
-0.07917479425668716
0.20697994530200958
0.16717632114887238
-0.2675178349018097
-0.0389627180993557
-0.09182188659906387
0.10984888672828674
0.14789901673793793
-0.3395620286464691
-0.13277065753936768
-0.12377139180898666
0.2540842890739441
0.227256178855896
0.15646038949489594
-0.36814433336257935
-0.3009081482887268
0.015086785890161991
0.004098963458091021
0.0729164406657219
-0.1843913495540619
-0.20967541635036469
0.20087268948554993
-0.063916876912117
-0.088765949010849
-0.10800277441740036
-0.06310053914785385
0.13030734658241272
-0.00809540692716837
-0.22435520589351654
-0.06080467626452446
0.05191562697291374
0.14177295565605164
0.08326089382171631
-0.2228040099143982
-0.014478753320872784
0.13248008489608765
0.2558412551879883
-0.0053827157244086266
0.227449432015419
0.2674494683742523
0.08322559297084808
0.03635715693235397
-0.028042322024703026
0.14207346737384796
0.2858799397945404
0.07373703271150589
0.02602909877896309
0.14737391471862793
0.030064113438129425
0.020576070994138718
-0.06223471835255623
-0.05172240734100342
0.12370863556861877
-0.14488887786865234
-0.0926288589835167
-0.04283982887864113
0.022128382697701454
0.013967432081699371
-0.09130619466304779
-0.3007792830467224
-0.15015101432800293
-0.09813576936721802
0.09916210919618607
-0.10455362498760223
-0.10525064915418625
0.1041608527302742
-0.040916748344898224
-0.2560048997402191
-0.0999290868639946
-0.03527333587408066
0.15588441491127014
-0.12401506304740906
-0.2599399983882904
0.1037156730890274
0.049520157277584076
-0.0629522055387497
-0.010776210576295853
-0.1377904862165451
0.22280454635620117
0.1439327895641327
-0.13187392055988312
-0.023675844073295593
-0.15929391980171204
0.21066872775554657
0.022859744727611542
-0.2891334295272827
-0.27460548281669617
-0.2512704133987427
0.041181888431310654
-0.24174515902996063
-0.1380954384803772
0.03597462922334671
-0.11935678869485855
-0.10863751173019409
-0.17503780126571655
-0.16243751347064972
-0.03832751885056496
-0.2001831829547882
-0.08082018792629242
0.06811826676130295
-0.09430433064699173
-0.002542550442740321
-0.06455539166927338
-0.02723502926528454
0.11951091140508652
0.012044381350278854
0.02241889201104641
-0.13660958409309387
-0.09657762199640274
0.2261977642774582
0.14159074425697327
0.053617432713508606
-0.00870906375348568
-0.30045390129089355
-0.19513998925685883
0.003909914288669825
0.07940216362476349
0.11920798569917679
-0.2755052149295807
-0.14290083944797516
-0.08832629024982452
0.08888548612594604
0.007539820391684771
-0.10725699365139008
0.010221786797046661
0.0723586454987526
0.01024025958031416
0.0028541001956909895
-0.11233695596456528
0.1217714175581932
0.04098844528198242
0.08748088032007217
-0.003552405396476388
-0.10817883908748627
0.1283300518989563
0.06699123978614807
-0.045834194868803024
-0.05574939399957657
-0.0620097853243351
0.24934813380241394
0.2042420506477356
-0.5241353511810303
0.049439288675785065
-0.08663327246904373
0.15931877493858337
0.09669340401887894
-0.078752301633358
0.11651170253753662
-0.09517515450716019
0.04991871118545532
-0.16326358914375305
-0.4614931344985962
-0.12257595360279083
-0.0651317834854126
0.1248268336057663
-0.3616134822368622
-0.752512514591217
-0.13630253076553345
0.006178232841193676
0.005525659304112196
-0.3000430464744568
-1.027328372001648
-0.21658751368522644
-0.03934841230511665
0.2794305086135864
0.20613369345664978
-0.16627873480319977
0.055837854743003845
-0.13367177546024323
0.2106359899044037
-0.013846095651388168
-0.10372841358184814
0.13037608563899994
0.05446512997150421
0.17441414296627045
-0.11533348262310028
-0.11423090845346451
0.16717153787612915
0.009052649140357971
0.20581282675266266
-0.19623510539531708
-0.2587083876132965
0.06847617775201797
0.12030719220638275
0.12630248069763184
-0.19990675151348114
-0.3648151457309723
0.08834187686443329
0.04228276386857033
0.013044753111898899
0.09353142976760864
0.1291133314371109
-0.08016796410083771
0.009475605562329292
-0.1439039409160614
-0.035188861191272736
-0.0012632947182282805
-0.2055504471063614
-0.061756718903779984
0.036239445209503174
0.03439908102154732
-0.007227787282317877
-0.2507881820201874
0.008862248621881008
0.12389381229877472
0.03397100046277046
-0.006364157889038324
-0.18911141157150269
0.04832141846418381
0.1511850506067276
0.18238858878612518
-0.07562265545129776
-0.24714826047420502
0.17607608437538147
0.47311916947364807
0.1843581646680832
0.09354139119386673
-0.28801456093788147
0.12590934336185455
0.19380563497543335
0.1267794519662857
-0.11572505533695221
-0.18565471470355988
0.058757610619068146
-0.12718506157398224
0.009967835620045662
-0.16047923266887665
0.04412960261106491
-0.11731591075658798
-0.2214605063199997
-0.09357420355081558
0.00654725031927228
0.09677623957395554
-0.23103229701519012
-0.46865761280059814
-0.13969889283180237
0.11095907539129257
0.03570324555039406
0.0998801663517952
0.32650694251060486
0.017749816179275513
-0.06681250780820847
0.026991022750735283
-0.04181121662259102
0.1508418619632721
0.06017788127064705
-0.06481252610683441
0.24993851780891418
0.023369895294308662
0.15464499592781067
0.004026937298476696
-0.043500564992427826
0.17633658647537231
0.12523919343948364
0.0373251810669899
-0.059047289192676544
0.08196287602186203
0.2108675092458725
0.26830458641052246
0.05138521268963814
-0.11428561806678772
0.028844187036156654
0.205491304397583
0.24601975083351135
0.12683147192001343
0.05937439203262329
0.15035392343997955
0.03792273625731468
0.03507445007562637
0.1745595932006836
0.00430889381095767
-0.09118249267339706
-0.027340952306985855
0.06072099134325981
-0.08634428679943085
-0.09705563634634018
0.004998458549380302
-0.07040972262620926
0.16680188477039337
-0.07641982287168503
-0.1710236668586731
-0.06406927853822708
-0.10703390091657639
0.17472323775291443
-0.09333865344524384
-0.2897789180278778
-0.04699742794036865
-0.024897070601582527
-0.09638708084821701
-0.2018256038427353
-0.33965954184532166
0.1462467908859253
0.11984524875879288
-0.08970211446285248
-0.02663138322532177
0.0872001200914383
0.005129512865096331
0.06941405683755875
0.03288504481315613
0.07870879024267197
0.24649503827095032
-0.04475744068622589
-0.043462373316287994
0.15931172668933868
0.24288034439086914
0.262460321187973
-0.016592418774962425
-0.20520511269569397
0.28832918405532837
0.30706360936164856
0.18690013885498047
0.11793820559978485
-0.4581336975097656
-0.04795311763882637
-0.1649267077445984
-0.25777384638786316
0.07902843505144119
0.0876297876238823
-0.01645798236131668
-0.06982733309268951
-0.014912113547325134
-0.017409009858965874
0.07246765494346619
0.10357485711574554
0.11139369755983353
-0.021515795961022377
0.047764088958501816
0.017469065263867378
0.08270634710788727
-0.0027295262552797794
-0.06899973750114441
-0.08478845655918121
0.01480003260076046
0.19006243348121643
-0.110967256128788
-0.17711903154850006
-0.016814062371850014
-0.34326761960983276
0.15337064862251282
0.07712722569704056
-0.1563875824213028
-0.25122639536857605
-0.21398138999938965
0.030154896900057793
0.022113895043730736
0.02833092398941517
-0.1063220351934433
-0.10850721597671509
0.01809776946902275
0.04366767406463623
-0.006348871160298586
-0.10474175214767456
-0.03330131992697716
0.07662775367498398
0.14508825540542603
-0.01089201495051384
-0.25072363018989563
-0.07740520685911179
0.17341163754463196
0.23146948218345642
0.11146975308656693
-0.08504441380500793
-0.01426605973392725
0.11838784068822861
-0.03290335834026337
-0.02558906562626362
-0.16286435723304749
-0.2889985740184784
0.12100205570459366
-0.1498929262161255
-0.04957722872495651
0.02497369609773159
-0.15016041696071625
0.0007200587424449623
-0.03493843972682953
-0.07440025359392166
0.19357344508171082
0.04198848083615303
-0.21402579545974731
-0.04369984194636345
0.007550917565822601
0.34430360794067383
-0.01075278501957655
-0.16269907355308533
-0.050291504710912704
0.09543754905462265
0.3906751871109009
0.08125167340040207
0.12659293413162231
-0.01914486289024353
-0.010242348536849022
0.015230021439492702
0.05769621580839157
-0.003062509000301361
-0.10127940773963928
-0.08696299046278
0.14943531155586243
-0.00820093136280775
0.03994515910744667
0.04236453026533127
-0.013087513856589794
0.11806581914424896
0.0788213312625885
-0.006697214208543301
-0.11021663248538971
-0.05557028949260712
0.08086361736059189
0.07691384851932526
0.14083367586135864
-0.12720663845539093
-0.1358828842639923
-0.08889275789260864
-0.02956901304423809
0.03489714115858078
0.026759803295135498
0.16397178173065186
0.09451773762702942
-0.2883865535259247
0.005472022108733654
0.06197868287563324
0.12571214139461517
-0.10970533639192581
-0.2592647969722748
0.11600463837385178
0.04487492889165878
0.013137686997652054
-0.03626171499490738
-0.18339329957962036
-0.013721692375838757
-0.05796588584780693
-0.035112570971250534
-0.05024852976202965
0.03905772417783737
-0.007333775516599417
-0.10142510384321213
-0.1289670169353485
0.018845735117793083
0.1506463885307312
0.24569782614707947
0.30534619092941284
0.20208854973316193
0.005090121179819107
0.04765930026769638
0.17803998291492462
0.18415267765522003
0.13085731863975525
0.15275275707244873
-0.15815868973731995
0.01934395171701908
0.15004658699035645
-0.04652414843440056
0.10599076002836227
-0.12569865584373474
-0.17570078372955322
-0.04475276544690132
-0.06822440773248672
-0.1823023557662964
0.09522952139377594
-0.2145722359418869
-0.09586114436388016
-0.02229233644902706
-0.27679839730262756
0.03847644105553627
0.04844087362289429
0.06994019448757172
0.15133799612522125
0.07087653130292892
-0.0028208319563418627
0.050914518535137177
-0.043051667511463165
-0.12965700030326843
0.07905564457178116
0.004747809376567602
-0.02909868396818638
-0.12381289154291153
-0.1656583994626999
0.07197218388319016
0.06768177449703217
0.04984190687537193
0.03446054458618164
-0.11138728260993958
0.04881419613957405
0.23628614842891693
-0.3151647746562958
-0.1502988040447235
-0.03467486426234245
-0.07492933422327042
0.23045846819877625
0.07313459366559982
0.12223657965660095
0.08744197338819504
-0.05337226763367653
0.08765372633934021
0.12494851648807526
0.10738267004489899
0.04697248339653015
-0.10766185075044632
-0.006951687857508659
0.1252080798149109
0.1269715577363968
0.04933961480855942
-0.08814916759729385
-0.09597183763980865
-0.07256633788347244
-0.04130978509783745
-0.024946536868810654
-0.15787900984287262
-0.2095717042684555
0.013291115872561932
-0.2095438688993454
-0.23894821107387543
-0.3157661557197571
-0.3119160830974579
0.1014547273516655
0.14774708449840546
0.023090023547410965
0.10603459179401398
-0.3257002830505371
0.21056433022022247
0.18673747777938843
0.1263483315706253
0.17300745844841003
-0.4313049018383026
0.03347322344779968
0.06679417192935944
-0.07811084389686584
0.2489727884531021
-0.4092988669872284
-0.06492742896080017
0.0810161754488945
-0.03577917069196701
0.17012859880924225
-0.22683241963386536
0.04998938366770744
0.13790784776210785
-0.1600276380777359
0.12768548727035522
-0.12280531227588654
0.043231211602687836
0.11662017554044724
0.04146295785903931
-0.026413260027766228
0.033785685896873474
-0.037507254630327225
0.0005590638029389083
-0.044138483703136444
0.11262024939060211
-0.12102357298135757
0.020583370700478554
-0.012122790329158306
-0.16161397099494934
0.043148767203092575
0.024515671655535698
0.00527343712747097
0.03772434592247009
-0.10609684884548187
0.08346359431743622
0.17424295842647552
-0.12063612788915634
0.11984647065401077
0.017799101769924164
0.03441084548830986
0.19646313786506653
-0.052787136286497116
-0.0507773756980896
-0.18091653287410736
-0.22340932488441467
-0.165615975856781
-0.17596040666103363
-0.12509828805923462
-0.16020870208740234
-0.10129238665103912
-0.2142583429813385
-0.1523279845714569
-0.08280853182077408
-0.20387446880340576
-0.07805626094341278
-0.0912371501326561
-0.019052617251873016
-0.08808865398168564
-0.07393905520439148
0.03471822291612625
-0.158528134226799
-0.05682680755853653
0.030641335994005203
0.08540947735309601
0.0585152842104435
0.009739718399941921
-0.07191795110702515
-0.17205898463726044
-0.30233234167099
-0.18608435988426208
0.07309651374816895
0.154391348361969
-0.19029243290424347
-0.06967418640851974
-0.013030706904828548
0.308671236038208
0.26088041067123413
-0.18880541622638702
-0.2853691577911377
-0.12284737080335617
0.17750214040279388
0.2339247614145279
-0.29674646258354187
-0.4647395610809326
-0.12952347099781036
0.1498083621263504
0.24089361727237701
-0.3490387499332428
-0.42084601521492004
-0.07790303230285645
0.08673956245183945
-0.05818633362650871
-0.1570078730583191
-0.30603817105293274
-0.1776038557291031
-0.0018566419603303075
0.1423017531633377
-0.10061201453208923
-0.3048460781574249
0.05048691853880882
0.18252508342266083
0.1487920880317688
-0.10383830964565277
-0.11843115091323853
0.24784493446350098
0.2199932038784027
0.1928400844335556
-0.29881784319877625
-0.25563567876815796
0.03137381002306938
0.08429349958896637
0.11151205748319626
-0.3863924741744995
-0.24170804023742676
0.03360777348279953
0.01598438248038292
-0.2001343071460724
-0.1138010025024414
-0.07214400172233582
-0.24108192324638367
-0.3270832300186157
-0.0948452278971672
-0.015800366178154945
-0.06434804946184158
-0.036182988435029984
-0.09146998822689056
0.052241358906030655
0.03822225704789162
0.028559237718582153
-0.024287821725010872
0.02913135662674904
-0.010089038871228695
0.15761098265647888
0.028934262692928314
0.033352989703416824
-0.08543281257152557
0.1174950897693634
0.07466396689414978
0.09918459504842758
-0.01980406418442726
0.07524750381708145
0.18616195023059845
0.12943758070468903
-0.052748896181583405
0.12706132233142853
-0.19504092633724213
0.011273480951786041
-0.10089506208896637
0.05398327484726906
0.10027796775102615
-0.06719553470611572
0.02506793849170208
0.03959274664521217
0.011356290429830551
0.08807343989610672
-0.07963106781244278
0.0056790863163769245
0.05452072620391846
0.14908234775066376
-0.06658745557069778
-0.11510735750198364
-0.10952945798635483
-0.11534580588340759
0.0645623430609703
-0.14263439178466797
-0.2184184193611145
0.023194538429379463
-0.004564510192722082
-0.24150821566581726
-0.027622636407613754
0.11043325811624527
0.13880933821201324
-0.040765099227428436
-0.14675705134868622
0.0452081672847271
0.09391810745000839
0.035316452383995056
-0.011362695135176182
0.051582954823970795
0.18697187304496765
0.1665855050086975
0.08796508610248566
-0.07345832139253616
0.042713578790426254
0.05671418085694313
0.19031690061092377
-0.04448973014950752
-0.08383212238550186
-0.09560691565275192
0.07220403850078583
0.09591511636972427
-0.06328222155570984
0.004288308788090944
-0.03458145633339882
0.05683087185025215
0.18576325476169586
-0.09409189224243164
-0.07524501532316208
-0.13266877830028534
0.04510452598333359
-0.02041563205420971
-0.1470833271741867
-0.04262705147266388
-0.038882382214069366
0.04642423987388611
-0.004018316511064768
-0.026710761711001396
-0.0683131217956543
0.15119381248950958
0.21945971250534058
0.1955723911523819
-0.09648574143648148
-0.08091998845338821
0.04295570030808449
-0.006400179583579302
0.10140804201364517
-0.16824950277805328
-0.30042871832847595
0.07758813351392746
0.01654524728655815
-0.30365797877311707
-0.13750220835208893
-0.34720703959465027
-0.15853647887706757
-0.06977484375238419
-0.1218409612774849
0.03258473798632622
-0.12019863724708557
-0.2312527596950531
0.20173078775405884
-0.0655297040939331
0.03249385207891464
0.1004791334271431
-0.10964396595954895
0.21481922268867493
0.04901887848973274
-0.07342396676540375
0.059667691588401794
-0.081815704703331
0.3916168510913849
0.15001505613327026
0.044056810438632965
-0.09710008651018143
0.1931750774383545
-0.05600268766283989
-0.18916457891464233
-0.0419168546795845
-0.05548127740621567
0.13219262659549713
0.1712125539779663
-0.01737252064049244
-0.03644644841551781
0.02698630839586258
-0.005315541289746761
-0.08137272298336029
-0.10148084163665771
0.010798241943120956
0.09222831577062607
-0.057701461017131805
0.1979253590106964
-0.046928804367780685
-0.014261667616665363
0.05087587609887123
-0.0053476737812161446
0.21985511481761932
-0.0030296884942799807
0.13554657995700836
0.157677561044693
0.11695105582475662
0.08687332272529602
0.11591042578220367
0.04255291819572449
-0.09253225475549698
-0.08970098942518234
-0.04665432870388031
0.05295500531792641
-0.04974089935421944
-0.11176759749650955
-0.07121117413043976
0.09107933938503265
0.04639080911874771
-0.21985691785812378
-0.020023850724101067
-0.037657346576452255
0.06738170981407166
-0.02390662394464016
-0.027202023193240166
-0.1974940150976181
-0.20833736658096313
-0.015889881178736687
0.04686422273516655
0.1644400954246521
-0.12315822392702103
-0.22412440180778503
-0.37400373816490173
0.11371413618326187
0.26614686846733093
-0.058435313403606415
-0.15383310616016388
-0.2591789662837982
0.10052879899740219
0.11039932817220688
0.07342448830604553
-0.0021498212590813637
-0.033298883587121964
0.17375101149082184
0.17944975197315216
0.18756310641765594
0.03550206869840622
0.024634679779410362
0.21269582211971283
0.050265271216630936
0.19554100930690765
0.015680335462093353
0.16325126588344574
0.05222151428461075
-0.11230278760194778
-0.03894800692796707
0.12209717929363251
-0.02283789962530136
-0.21846741437911987
0.05194256082177162
0.017238376662135124
0.11732454597949982
-0.01351661141961813
0.047073785215616226
-0.12150847166776657
0.02848779782652855
0.08141694217920303
-0.04704419896006584
-0.039140187203884125
-0.16748060286045074
0.005406595766544342
0.045789141207933426
0.047732844948768616
-0.10655808448791504
-0.13857834041118622
0.005698371212929487
0.08884711563587189
0.15457777678966522
0.04267161712050438
-0.1196216493844986
0.0037042354233562946
-0.14105704426765442
-0.22072885930538177
-0.16801057755947113
-0.17280647158622742
0.08341038972139359
0.019842829555273056
-0.0076373969204723835
0.018977390602231026
-0.04659997671842575
-0.006030908320099115
-0.0010455253068357706
0.049301814287900925
-0.035971954464912415
-0.30651986598968506
0.03743778541684151
0.004424737766385078
0.006582111120223999
-0.0622481144964695
-0.3868504762649536
-0.20217137038707733
-0.003136390121653676
-0.0792633593082428
-0.044158924371004105
-0.04252041503787041
0.22878170013427734
0.05598314851522446
-0.02410254068672657
0.10029284656047821
-0.1628677248954773
-0.023403318598866463
0.23463112115859985
0.08757315576076508
0.19047178328037262
-0.21234296262264252
-0.11882773786783218
0.29159003496170044
0.10399232804775238
0.1454378068447113
0.102185919880867
0.09519127011299133
0.036817800253629684
0.028612760826945305
0.14902235567569733
0.5101195573806763
0.2838688790798187
-0.16932035982608795
-0.2626948356628418
0.03966623544692993
-0.199978768825531
0.15767371654510498
0.10153721272945404
-0.08903169631958008
0.14708882570266724
-0.1482093185186386
0.20295268297195435
0.2844705581665039
0.07559093832969666
0.10666169971227646
-0.22229869663715363
-0.11037276685237885
0.09690167754888535
0.0756545290350914
0.06818871200084686
0.04624820128083229
-0.014588597230613232
-0.2759801745414734
-0.14334635436534882
-0.0790681391954422
0.22681106626987457
-0.015925636515021324
-0.4467214345932007
-0.3300321698188782
0.026772435754537582
-0.07922400534152985
-0.09262555837631226
-0.002689089858904481
0.049571748822927475
0.02171267755329609
-0.1234462559223175
-0.18571732938289642
-0.15262003242969513
-0.12106763571500778
-0.16575084626674652
-0.09046715497970581
-0.01902271993458271
-0.04545087367296219
-0.18675915896892548
-0.24691295623779297
0.03532091900706291
0.25344517827033997
0.24774746596813202
0.06966717541217804
-0.0013558852951973677
0.20505854487419128
0.35166239738464355
0.5079140067100525
0.3147616386413574
0.05283230543136597
0.00010727430344559252
0.23893257975578308
0.06813710182905197
-0.08013560622930527
-0.21159885823726654
0.16056373715400696
0.35064467787742615
-0.13512179255485535
-0.07982777059078217
-0.148829847574234
0.1821182519197464
0.06926257908344269
-0.19898222386837006
-0.10193601995706558
0.11411429196596146
-0.012301665730774403
-0.3236748278141022
0.021342575550079346
0.03547704219818115
0.15837913751602173
-0.2873643934726715
-0.4503224492073059
0.19182172417640686
0.05133308842778206
0.3668934404850006
0.0007983510731719434
0.19566400349140167
0.0902823731303215
0.03400445356965065
-0.03519536554813385
0.016002506017684937
0.13454188406467438
0.0743928849697113
-0.03431833162903786
0.10782040655612946
-0.2357727736234665
0.0006054449477232993
-0.006783665157854557
0.0037110974080860615
0.05548258498311043
-0.33469846844673157
-0.4490680396556854
-0.38213181495666504
-0.09618257731199265
-0.02281348407268524
0.14098097383975983
-0.3006812036037445
-0.3577210009098053
-0.05671451985836029
-0.07338444888591766
-0.12699604034423828
0.017298290506005287
0.14432422816753387
0.11497987806797028
-0.130375474691391
0.04767725616693497
0.1057109460234642
0.08297917991876602
-0.03721135854721069
0.021908802911639214
0.14198222756385803
-0.013533233664929867
-0.03363475576043129
-0.04415420442819595
0.009342655539512634
0.08815549314022064
-0.14657433331012726
-0.29430535435676575
-0.1961231380701065
-0.12517701089382172
-0.139511838555336
-0.33871325850486755
-0.23581945896148682
-0.06412674486637115
-0.03952306881546974
0.07904945313930511
0.012666258960962296
-0.027071600779891014
0.038913365453481674
0.22565974295139313
-0.07533904910087585
-0.061026379466056824
-0.07833361625671387
-0.04736180976033211
0.09187361598014832
-0.06282608956098557
-0.039530202746391296
0.034117136150598526
-0.23394642770290375
0.0641351193189621
-0.10129242390394211
-0.1805790662765503
-0.1712893545627594
-0.363892525434494
0.016050415113568306
-0.23569409549236298
-0.36188048124313354
-0.21666184067726135
-0.4375738203525543
-0.17442667484283447
0.07544463872909546
0.17291127145290375
-0.045359816402196884
-0.13520704209804535
-0.04571986198425293
0.1300254613161087
0.28513258695602417
0.15253953635692596
-0.08330629765987396
0.04899851977825165
0.07321109622716904
0.17245176434516907
0.24584732949733734
-0.013006571680307388
0.028549447655677795
0.036188267171382904
0.12000071257352829
0.19490580260753632
0.06297842413187027
-0.030242232605814934
-0.03998833894729614
-0.023653194308280945
-0.04670547693967819
-0.10185302048921585
0.027159959077835083
0.003200958017259836
0.00047962547978386283
0.21623419225215912
0.05922362953424454
0.0499260239303112
0.11552123725414276
0.07565176486968994
0.08569314330816269
0.15307506918907166
0.15726396441459656
0.008279990404844284
-0.043326061218976974
0.056014202535152435
0.13303305208683014
0.11183412373065948
-0.16324815154075623
-0.10298066586256027
-0.07960036396980286
0.01605287753045559
0.07463943213224411
-0.10600508749485016
-0.17489992082118988
0.027197442948818207
0.003976810723543167
0.022181525826454163
-0.057127684354782104
-0.07880675047636032
-0.2838250696659088
0.019599856808781624
0.2696867287158966
0.12394007295370102
0.004423665348440409
-0.3440150320529938
-0.08204203844070435
0.05370425805449486
0.06848641484975815
-0.03577140346169472
-0.5577276349067688
-0.4316290616989136
-0.1768273413181305
0.17577706277370453
0.018558641895651817
-0.4107140600681305
-0.6469665169715881
-0.34371718764305115
0.14748896658420563
-0.043533843010663986
-0.5494238138198853
-0.7077227234840393
-0.5201879739761353
-0.010933303274214268
0.10373368859291077
-0.11894059926271439
-0.08776915818452835
-0.02222026139497757
0.13859565556049347
0.18026317656040192
0.06149587407708168
-0.06868097931146622
-0.06159196421504021
0.17011819779872894
0.18423469364643097
0.07024359703063965
0.04178132489323616
0.04966868832707405
0.008179441094398499
0.12754718959331512
0.10334205627441406
0.03898094594478607
-0.01034742221236229
0.12838368117809296
0.1685483604669571
0.025191286578774452
0.10554076731204987
0.09291047602891922
-0.19806909561157227
-0.16786250472068787
-0.2119222730398178
-0.1927865892648697
-0.10388820618391037
-0.10271085053682327
-0.09869631379842758
-0.03580786660313606
-0.18358378112316132
-0.03731362521648407
-0.05326235294342041
-0.11165793985128403
0.06221912428736687
-0.009034755639731884
-0.04767687991261482
0.11815553903579712
0.001848018728196621
0.07905862480401993
0.008364294655621052
0.06374647468328476
0.07935206592082977
0.11017347872257233
0.15404298901557922
0.13968048989772797
-0.0015167889650911093
-0.09103171527385712
0.9533657431602478
0.43377676606178284
0.023243116214871407
-0.17871269583702087
0.03534030169248581
0.5850204825401306
0.04645135626196861
0.09466923028230667
-0.035280872136354446
0.20510593056678772
0.25133249163627625
-0.20475462079048157
-0.12058565765619278
0.0939994603395462
0.08413057774305344
0.09881660342216492
-0.24269379675388336
-0.17465321719646454
-0.047552868723869324
0.22300635278224945
-0.054322242736816406
-0.2058567851781845
-0.10142473131418228
-0.09954322129487991
-0.11845176666975021
0.3947313129901886
0.2381047010421753
0.10286874324083328
-0.17383816838264465
-0.2775002121925354
0.02061011828482151
0.05865519121289253
0.19013169407844543
0.18503698706626892
-0.177159383893013
-0.2628496289253235
-0.19787342846393585
0.06916902214288712
0.17898738384246826
0.04289684817194939
-0.16782796382904053
-0.24796535074710846
-0.11007343977689743
-0.034545790404081345
-0.004976911004632711
-0.1698645055294037
-0.3233487010002136
-0.045325953513383865
0.034184765070676804
-0.1361377090215683
-0.09707345068454742
0.06565047055482864
0.098214291036129
0.22957105934619904
-0.2148253470659256
-0.22569088637828827
-0.0860041156411171
-0.0880284458398819
0.009918940253555775
-0.05192208290100098
-0.09964108467102051
-0.0955231785774231
-0.024712679907679558
-0.18208958208560944
0.09624043852090836
0.052247852087020874
-0.09371281415224075
-0.010483525693416595
-0.19464538991451263
0.007637524977326393
0.06887102872133255
0.01406613364815712
0.03750588372349739
-0.08899916708469391
0.09986601024866104
0.11756516247987747
0.09764128178358078
-0.13658207654953003
0.13251379132270813
0.10740139335393906
0.26255249977111816
0.07146438956260681
-0.1404658555984497
0.09208344668149948
-0.07800906151533127
0.3396209180355072
0.06997060775756836
-0.07684256136417389
0.01888163946568966
-0.08489814400672913
0.26647043228149414
0.06377575546503067
0.0775170624256134
0.1089353933930397
-0.20051102340221405
0.08631822466850281
0.07385925203561783
0.12327378243207932
0.09563977271318436
0.20931215584278107
0.3268963396549225
0.25540438294410706
-0.08824557065963745
-0.256257027387619
0.07206199318170547
0.14673718810081482
0.062274619936943054
0.1379164755344391
0.10422014445066452
-0.05366302654147148
-0.19310908019542694
-0.1638200581073761
0.18695631623268127
0.10617407411336899
0.13872592151165009
-0.1338808238506317
-0.1531672179698944
0.03574858233332634
-0.023430941626429558
0.042808953672647476
-0.278063029050827
-0.2676284909248352
0.008452939800918102
-0.012720093131065369
0.2713395655155182
0.09005191177129745
-0.08855966478586197
-0.010766967199742794
-0.09077486395835876
0.041275493800640106
0.09877751767635345
0.09908153116703033
-0.09941530972719193
-0.2103794813156128
-0.07626821100711823
-0.08711673319339752
0.004986798856407404
0.09141359478235245
-0.058261919766664505
-0.061602480709552765
-0.06262420862913132
-0.07434980571269989
0.06488706916570663
0.05580243840813637
-0.1104695200920105
-0.15830807387828827
-0.017440596595406532
0.05524668097496033
-0.010907916352152824
0.03131183981895447
0.1414458453655243
0.024737846106290817
-0.0057803052477538586
-0.11954500526189804
0.018473859876394272
0.3019506633281708
-0.017763333395123482
-0.03095851093530655
-0.1444465070962906
-0.002745406934991479
0.18001100420951843
0.11777904629707336
-0.08361345529556274
0.021987704560160637
-0.09209109097719193
0.16577880084514618
0.06015392392873764
-0.020999031141400337
0.0959729477763176
-0.05183729901909828
0.06158994510769844
0.11803732067346573
0.03145861253142357
0.04618334025144577
0.026417456567287445
0.22941073775291443
-0.16630293428897858
-0.18181149661540985
-0.09837409108877182
0.049329061061143875
0.3429756760597229
-0.019032442942261696
-0.16294974088668823
0.07584165781736374
0.015764284878969193
0.146183043718338
-0.17952369153499603
-0.15827232599258423
-0.07525711506605148
-0.011636690236628056
0.05348483473062515
-0.17634865641593933
-0.03976030647754669
0.027372511103749275
-0.06710178405046463
0.15259990096092224
-0.0951058641076088
-0.04426633194088936
-0.0327565036714077
-0.0253526009619236
0.02627520076930523
0.2252221405506134
0.1648091822862625
0.11332088708877563
-0.10527503490447998
-0.09986831247806549
0.0016685737064108253
0.08794287592172623
-0.04581911489367485
-0.17351940274238586
-0.08144807070493698
-0.08823756128549576
-0.05651463195681572
-0.05007024109363556
-0.0012970311800017953
0.022611957043409348
0.05184094235301018
-0.10195540636777878
-0.012019352056086063
0.012224187143146992
-0.11420218646526337
0.0476003922522068
-0.026286816224455833
0.08487114310264587
-0.01085236482322216
-0.6380447745323181
-0.27736032009124756
0.1335655301809311
-0.02932673506438732
0.15998877584934235
-0.23975877463817596
-0.26922130584716797
0.23175852000713348
0.06079484149813652
0.13006563484668732
0.0468086302280426
-0.16309292614459991
0.32882454991340637
0.17420822381973267
0.10794135183095932
0.16004882752895355
-0.10575329512357712
0.24709932506084442
0.025184227153658867
-0.050248440355062485
-0.03638266772031784
-0.2595873773097992
0.14370903372764587
0.16346465051174164
0.07703515142202377
0.022626470774412155
-0.23071128129959106
-0.14981944859027863
-0.12373106926679611
0.09133584797382355
0.2835592031478882
-0.15409716963768005
-0.08774260431528091
-0.04097757861018181
-0.04903000220656395
0.09092839807271957
-0.12164633721113205
-0.0256261695176363
0.1298566609621048
-0.02291489951312542
0.037909455597400665
-0.17540904879570007
0.029016442596912384
-0.07535549253225327
0.07354528456926346
0.0719132125377655
0.007008126471191645
0.009756174869835377
0.048169877380132675
0.18921124935150146
-0.065757155418396
-0.17771252989768982
0.039640333503484726
0.0728188008069992
0.14912697672843933
0.006872883066534996
-0.08562112599611282
-0.04113159328699112
0.0522351898252964
0.1076275184750557
-0.045657847076654434
0.01956040970981121
-0.029413465410470963
0.06909771263599396
0.05991062894463539
-0.037822626531124115
-0.02680104598402977
-0.0811900943517685
0.0774788185954094
0.021166762337088585
0.029841991141438484
0.04466073215007782
0.05162987485527992
0.060443345457315445
-0.14036054909229279
-0.25122949481010437
0.09444183856248856
0.025152921676635742
-0.059441737830638885
-0.09993776679039001
-0.013635389506816864
0.25479477643966675
0.06476211547851562
-0.1168844997882843
0.07667827606201172
0.0680830329656601
0.23407192528247833
0.1008744165301323
0.003421810455620289
0.17927508056163788
0.1640959531068802
0.13435471057891846
-0.06535958498716354
-0.19722792506217957
0.16464126110076904
0.04141940176486969
0.005909464322030544
-0.06028815358877182
-0.15164266526699066
-0.13286848366260529
-0.12360939383506775
0.00203220103867352
-0.006574609316885471
-0.11288119107484818
-0.1191708892583847
0.02755812183022499
0.14847223460674286
-0.05952802300453186
-0.017533287405967712
-0.004199855960905552
0.040722645819187164
0.040858931839466095
-0.0828394740819931
0.005005981773138046
-0.028276490047574043
-0.04714836925268173
0.07182788848876953
-0.0020300312899053097
0.162394180893898
-0.04568253085017204
-0.0742867961525917
-0.010519417002797127
-0.12805724143981934
0.020024066790938377
-0.07757485657930374
-0.05999032407999039
-0.20633037388324738
-0.109041228890419
-0.11924489587545395
-0.11155295372009277
-0.1825585663318634
-0.03607640415430069
0.13997235894203186
0.03330780193209648
-0.10650350153446198
-0.09113488346338272
0.05442811921238899
0.2394426316022873
0.19627952575683594
-0.15852995216846466
-0.11010128259658813
-0.03931640833616257
0.11249742656946182
0.05799694359302521
0.006770513951778412
-0.12293238192796707
0.06704898178577423
0.1697649210691452
0.19872692227363586
-0.05584344267845154
0.054510198533535004
-0.008083581924438477
0.0449330098927021
0.12018190324306488
0.0874604806303978
0.19726353883743286
-0.003450271673500538
-0.20249800384044647
0.0750364363193512
0.0632767304778099
0.19109748303890228
-0.07425327599048615
-0.14159666001796722
-0.07400956749916077
-0.08439832925796509
0.10020105540752411
-0.0557551383972168
0.023115182295441628
-0.20586960017681122
-0.23175427317619324
0.20217008888721466
0.10479412227869034
-0.09526406228542328
-0.17488595843315125
-0.09126189351081848
-0.0791294127702713
0.027687588706612587
-0.17849920690059662
-0.06439261883497238
-0.18336258828639984
-0.06656808406114578
0.16547179222106934
-0.07777000218629837
-0.03717689588665962
-0.1343991756439209
-0.15651440620422363
0.10555697977542877
0.028630461543798447
-0.06397312134504318
-0.182159423828125
-0.09021545946598053
-0.02469606325030327
-0.05903973430395126
0.012241106480360031
-0.2531585991382599
-0.12640875577926636
-0.01581384427845478
-0.06922385096549988
0.0028087671380490065
-0.0910676047205925
0.16818255186080933
0.10153654217720032
-0.06709388643503189
-0.13581614196300507
-0.04309353604912758
0.14025786519050598
0.14361080527305603
-0.15448343753814697
-0.13146042823791504
-0.07456235587596893
0.10484576970338821
0.19336220622062683
-0.07505389302968979
-0.04248989000916481
-0.043691907078027725
0.050087880343198776
0.12560860812664032
0.09829149395227432
-0.03124394454061985
-0.11131506413221359
-0.013844147324562073
0.18267770111560822
0.18953821063041687
0.19008350372314453
-0.29921042919158936
0.28547969460487366
0.202320858836174
-0.013606619089841843
0.22314748167991638
-0.05955064296722412
0.2706266939640045
-0.14639617502689362
-0.5663167834281921
0.11936158686876297
0.042145151644945145
0.1482236236333847
-0.7641541957855225
-1.08567476272583
-0.04149094596505165
0.08658410608768463
-0.05577392131090164
-1.0008221864700317
-0.7294836640357971
-0.09719372540712357
-0.027316462248563766
-0.03811854496598244
-0.5068720579147339
-0.5170565843582153
0.02076033689081669
-0.0030504679307341576
0.21384964883327484
0.13972041010856628
-0.13744600117206573
0.11619925498962402
-0.021606426686048508
0.004965362139046192
-0.12988881766796112
-0.3074679970741272
0.12949027121067047
0.10570124536752701
-0.054134685546159744
-0.3298371434211731
-0.3946457803249359
0.028513025492429733
0.08281714469194412
-0.06533373892307281
-0.3304031491279602
-0.30414852499961853
-0.06789538264274597
0.12814317643642426
0.14766791462898254
0.01609458401799202
-0.05937185510993004
0.06847156584262848
-0.03521735221147537
-0.09039946645498276
0.03588525205850601
0.14088140428066254
0.10163415223360062
-0.09582605957984924
0.04743188992142677
0.08404932916164398
0.17135512828826904
-0.06943190097808838
-0.037706732749938965
0.015372248366475105
0.1782715618610382
0.08936748653650284
-0.04247540235519409
0.07117012143135071
0.2001904398202896
0.18047036230564117
0.13738125562667847
0.057537633925676346
0.04251156374812126
0.017765173688530922
0.1404372751712799
0.10154791921377182
0.07665061205625534
-0.2231956571340561
0.27638480067253113
-0.10699565708637238
0.01144506223499775
0.028609732165932655
-0.1199365183711052
0.06086645647883415
-0.1265677809715271
0.08236464112997055
0.2055932581424713
-0.031751617789268494
-0.21225988864898682
-0.041910264641046524
0.053715601563453674
0.17829592525959015
-0.016661206260323524
-0.4233577251434326
0.04424244165420532
-0.08654388785362244
0.08406725525856018
-0.09777519851922989
-0.3501165211200714
0.034216493368148804
-0.1341140866279602
-0.13467548787593842
-0.11844564229249954
0.1525484174489975
-0.021382667124271393
-0.04163670539855957
0.15874819457530975
-0.026523970067501068
-0.006776419468224049
-0.2371450513601303
-0.16578352451324463
0.08917772024869919
0.10890562832355499
-0.057678256183862686
-0.17849880456924438
-0.01477928925305605
0.0903453677892685
0.14260409772396088
-0.21962769329547882
-0.21825610101222992
-0.03892658278346062
0.020211193710565567
0.21881406009197235
0.0075764525681734085
0.10337648540735245
0.026216408237814903
0.08083043247461319
-0.014732381328940392
-0.08276358991861343
0.0217977836728096
0.12893737852573395
0.16167214512825012
-0.07069673389196396
-0.16266831755638123
-0.1004871129989624
0.11880680918693542
0.2131107747554779
-0.14589324593544006
-0.24616402387619019
-0.01933830976486206
0.030208243057131767
0.17821267247200012
-0.10520370304584503
-0.15432515740394592
0.09213657677173615
0.017988082021474838
0.05556758493185043
-0.039230406284332275
0.0033406231086701155
0.1544581651687622
0.15083125233650208
0.09572216868400574
0.02216092124581337
-0.4782465100288391
-0.11186370998620987
0.5126445889472961
0.11593165993690491
-0.21347521245479584
-0.36532488465309143
-0.024268755689263344
0.30816230177879333
-0.019438881427049637
-0.4250562787055969
-0.5698005557060242
-0.006443943362683058
0.0016918270848691463
0.06030064821243286
-0.3585163950920105
-0.5360749363899231
0.017452385276556015
-0.23293454945087433
0.017561212182044983
0.06109141558408737
-0.20140023529529572
0.04987461492419243
-0.4797821044921875
-0.22577713429927826
-0.037067558616399765
-0.3361150026321411
0.08930980414152145
0.2803231477737427
-0.08236798644065857
0.10082227736711502
-0.08340081572532654
0.22163283824920654
0.42207658290863037
0.21093547344207764
-0.1950014978647232
0.16607993841171265
0.30850669741630554
0.08405985683202744
0.24561309814453125
-0.104878269135952
0.056606538593769073
0.0668410211801529
-0.1495848149061203
0.032072510570287704
0.2169572412967682
-0.07822322845458984
-0.07412492483854294
-0.4463261067867279
-0.1519249528646469
0.2391650229692459
0.019130954518914223
-0.08438839763402939
-0.006828621495515108
0.17325611412525177
0.05838547646999359
-0.05718041583895683
-0.05144757404923439
-0.19065067172050476
0.0821109414100647
0.06084107607603073
-0.14539451897144318
-0.0172431617975235
-0.20274998247623444
-0.27292707562446594
0.03710801154375076
-0.06461255252361298
-0.0876680389046669
-0.10169889032840729
-0.22690792381763458
0.08571906387805939
0.13777364790439606
0.1908833086490631
0.2252136468887329
0.1067608967423439
-0.03262628614902496
0.1343197077512741
-0.09723643958568573
-0.06125006824731827
-0.3694978952407837
0.2768612802028656
0.1559307873249054
-0.17862480878829956
-0.12395108491182327
-0.2646368145942688
0.302185982465744
0.02371627278625965
-0.08818943053483963
0.013366461731493473
-0.13256430625915527
0.21381023526191711
0.10455567389726639
-0.1531098186969757
-0.025013655424118042
-0.17123426496982574
-0.01166544295847416
-0.22668471932411194
-0.2526032328605652
-0.2918626368045807
-0.03793485462665558
-0.020645370706915855
-0.05709270387887955
0.07265806198120117
0.17131361365318298
-0.0477757453918457
0.027282683178782463
0.0802302211523056
0.25142601132392883
0.30690792202949524
-0.034751638770103455
-0.10650947690010071
0.01215479988604784
0.23615987598896027
0.15227624773979187
0.2359553575515747
-0.18480801582336426
-0.03019135072827339
-0.09911482781171799
-0.11198776960372925
0.17055092751979828
-0.12323728948831558
-0.14133763313293457
-0.11211501806974411
-0.3657248616218567
-0.06417497247457504
-0.10549724102020264
0.08319404721260071
0.1883176863193512
-0.05921707674860954
-0.243320032954216
-0.08698418736457825
0.08674483746290207
0.09466762095689774
-0.11252187937498093
-0.14259073138237
-0.04853641614317894
0.08310866355895996
0.06628561019897461
-0.06316301226615906
-0.14534547924995422
-0.21289223432540894
0.07868333160877228
-0.07549270987510681
-0.13725322484970093
-0.09028356522321701
-0.248117133975029
-0.10281619429588318
-0.2520216107368469
-0.2687879204750061
0.00789992231875658
0.17097383737564087
0.36003851890563965
0.12546399235725403
-0.22033214569091797
-0.10488685220479965
-0.02020741067826748
0.1885097771883011
0.10073814541101456
-0.09046023339033127
-0.18714144825935364
-0.09548594802618027
-0.1741497814655304
-0.04440728947520256
-0.15829704701900482
-0.019183151423931122
-0.35192209482192993
-0.3551468253135681
-0.19858451187610626
-0.20413918793201447
-0.062231503427028656
-0.2447720170021057
-0.40128564834594727
-0.21262556314468384
-0.2020888775587082
0.009981770999729633
0.0715545043349266
0.16025254130363464
0.030486218631267548
-0.15464836359024048
-0.07048766314983368
0.07122521102428436
0.2119438499212265
0.13502146303653717
0.01171509176492691
0.04292350262403488
-0.10518084466457367
0.03322828933596611
0.1355116367340088
0.07499857246875763
0.17705301940441132
-0.039184991270303726
-0.08521026372909546
-0.016726037487387657
0.008819373324513435
0.11729345470666885
-0.04886581003665924
-0.06320355087518692
0.05196615308523178
0.08533383905887604
0.10608011484146118
0.15727700293064117
0.19152942299842834
0.2650126814842224
0.25311002135276794
0.1956215798854828
0.1236233338713646
0.07510138303041458
-0.03583146631717682
-0.0664111077785492
-0.10700331628322601
-0.03606443479657173
-0.1161501556634903
-0.18623721599578857
-0.24868163466453552
-0.2466699331998825
-0.03290369734168053
-0.0694151222705841
-0.084772989153862
-0.27327507734298706
-0.24555180966854095
-0.014395741745829582
0.005573214963078499
-0.13339141011238098
-0.1693073958158493
0.004952671006321907
0.044331375509500504
-0.00544380210340023
-0.04307330772280693
-0.014760317280888557
0.12822426855564117
0.12128673493862152
0.04196079447865486
-0.06910163909196854
-0.059030789881944656
-0.13188976049423218
0.08470861613750458
-0.010371195152401924
0.03632388263940811
-0.014685172587633133
-0.2750883102416992
0.021276332437992096
3.632253356045112e-05
-0.025682581588625908
0.08819583803415298
-0.3016706109046936
-0.058648791164159775
0.11135135591030121
-0.056442003697156906
0.05515172705054283
-0.42401689291000366
0.07870230823755264
0.046998530626297
-0.06361522525548935
-0.13572728633880615
-0.007167404517531395
0.03000672161579132
0.18075905740261078
0.11812512576580048
0.051639996469020844
0.00387596245855093
-0.0032894122414290905
0.09569338709115982
0.14642037451267242
0.11646758764982224
0.1634751856327057
-0.11453787237405777
-0.0253473911434412
0.0018783224513754249
0.09406665712594986
0.09422290325164795
0.015151635743677616
0.04990515112876892
0.04333930462598801
0.11038727313280106
0.043516628444194794
0.0035301081370562315
-0.11707298457622528
-0.12162154167890549
-0.13268540799617767
-0.21352088451385498
-0.06425552070140839
0.021902985870838165
-0.03920365497469902
-0.11348596215248108
-0.06184680759906769
0.06275686621665955
-0.06381123512983322
0.019308164715766907
-0.05783378332853317
0.05758783593773842
-0.07319694757461548
-0.03496573120355606
0.07007835060358047
0.04564788565039635
-0.006487283390015364
-0.03038805164396763
0.1111706867814064
0.08980239182710648
0.16022393107414246
0.11857890337705612
0.031103067100048065
0.15662860870361328
-0.23000788688659668
-0.16328024864196777
-0.251844584941864
-0.035741593688726425
-0.1403706967830658
-0.3105598986148834
-0.23137271404266357
-0.3561239242553711
-0.03341246768832207
-0.7132447957992554
-0.7175918817520142
-0.16355088353157043
-0.07573346048593521
-0.3285920023918152
-1.0044134855270386
-0.7369782328605652
0.03508250042796135
-0.01259912084788084
-0.4493292272090912
-1.1153582334518433
-0.2371392697095871
0.3279115855693817
0.29322531819343567
0.037628915160894394
0.07366327196359634
-0.17828670144081116
-0.16628216207027435
-0.28353914618492126
0.35185444355010986
0.17904625833034515
-0.0068212454207241535
-0.11393579095602036
-0.10481761395931244
0.19872614741325378
-0.13799840211868286
-0.3033079504966736
-0.12617537379264832
-0.03918170928955078
0.04576605558395386
-0.19318406283855438
-0.27222633361816406
-0.013017934747040272
0.1014724150300026
-0.03146137669682503
0.023774346336722374
-0.025380780920386314
0.18064050376415253
0.1685168296098709
0.1304856687784195
0.21454402804374695
0.26288706064224243
0.2437935173511505
0.04442550987005234
0.0379318967461586
0.11655787378549576
0.16815242171287537
0.15170389413833618
-0.02263224869966507
0.015146089717745781
0.14650219678878784
0.0705636739730835
-0.14407169818878174
-0.04792431369423866
0.06784012168645859
0.033371176570653915
-0.0036518580745905638
0.017562957480549812
0.07046374678611755
0.007278057746589184
-0.05422038957476616
-0.168794646859169
-0.07299850881099701
0.1904940903186798
0.03605739027261734
-0.12454498559236526
-0.05449504777789116
0.16177774965763092
0.18398916721343994
-0.005238448269665241
-0.3557686507701874
-0.10868624597787857
0.048920661211013794
0.12980179488658905
-0.16271647810935974
-0.3519437313079834
-0.10710414499044418
0.009380129165947437
-0.18500858545303345
-0.053819525986909866
-0.265196293592453
-0.024913759902119637
-0.06144523620605469
-0.46352076530456543
0.002269117394462228
0.02077553980052471
-0.04527809098362923
-0.3300873935222626
-0.7080333232879639
-0.04177757352590561
-0.12894625961780548
-0.2437065988779068
-0.09021442383527756
-0.07673525810241699
0.0923575609922409
0.003533949377015233
3.019457471964415e-05
-0.048364851623773575
0.02222924306988716
0.05829724669456482
-0.05407180264592171
0.03546485677361488
0.09693260490894318
-0.06531543284654617
-0.038009315729141235
0.02857396751642227
-0.06703874468803406
0.010161496698856354
-0.021911228075623512
-0.029560837894678116
-0.008967525325715542
-0.007229227107018232
0.23157085478305817
0.028366873040795326
-0.002894985256716609
-0.16133563220500946
-0.15523803234100342
0.04200351610779762
0.06878195703029633
0.046666789799928665
0.017668144777417183
-0.11755210161209106
0.034362923353910446
0.12886954843997955
0.037525855004787445
0.013371394015848637
0.0817045047879219
0.17290835082530975
0.20786094665527344
0.06837522238492966
0.16586481034755707
0.0778891071677208
0.21002255380153656
0.06443891674280167
0.12664459645748138
0.21107105910778046
0.16641297936439514
0.15393926203250885
-0.0611259900033474
-0.14324505627155304
-0.0184018537402153
-0.03368781879544258
0.05041668936610222
0.12923188507556915
-0.09679489582777023
0.09983846545219421
0.2536681294441223
0.11404608190059662
0.1635262817144394
-0.1673022210597992
0.34628453850746155
0.3914793133735657
0.04513322934508324
0.20369210839271545
-0.15412604808807373
0.22395604848861694
0.3331763446331024
0.00010092248703585938
0.3246036469936371
-0.2546408474445343
-0.01629207655787468
0.36626479029655457
-0.026294128969311714
0.14353902637958527
-0.1361413449048996
-0.18079020082950592
-0.15583311021327972
-0.11653054505586624
0.06810478121042252
-0.03348803520202637
0.1079416498541832
0.06449810415506363
-0.0641658827662468
0.1779782921075821
-0.18249574303627014
-0.043657172471284866
-0.07917064428329468
-0.24543234705924988
-0.026634901762008667
-0.2570573389530182
0.01681246981024742
0.06181721016764641
-0.12778785824775696
0.08727356791496277
-0.15288043022155762
-0.05004557967185974
0.05584990233182907
-0.22814692556858063
0.008370374329388142
0.1376783400774002
0.15227702260017395
0.1762392371892929
0.10197107493877411
-0.07715442776679993
0.275306761264801
0.15723954141139984
0.1620846837759018
0.052705321460962296
-0.0866568312048912
0.04307369142770767
0.07433247566223145
0.05145176127552986
-0.04776964336633682
-0.06443731486797333
0.025866813957691193
-0.013410906307399273
0.05065629631280899
0.005440763663500547
0.0015538594452664256
-0.020585887134075165
-0.10518888384103775
-0.06262511014938354
-0.058750007301568985
-0.07239779084920883
-0.36937469244003296
-0.05840965732932091
-0.116664819419384
-0.05646654963493347
0.1286114752292633
-0.17364917695522308
0.009276291355490685
0.10695654898881912
0.2995733618736267
0.2949649691581726
0.021561985835433006
0.1991402506828308
0.1603068858385086
0.29215723276138306
0.24696442484855652
-0.01852063462138176
0.07858742028474808
-0.01672498509287834
0.016413217410445213
0.2656363844871521
-0.0862218514084816
0.003447672352194786
-0.1488170474767685
-0.1700724959373474
0.3057631552219391
-0.21721912920475006
-0.22833901643753052
-0.21451380848884583
-0.2307727187871933
-0.02300138585269451
-0.2395952194929123
0.014615795575082302
-0.04420732706785202
-0.07316328585147858
-0.05668336898088455
-0.17485705018043518
-0.016682947054505348
-0.08146599680185318
-0.1561170220375061
-0.0004076541226822883
-0.024329209700226784
0.037244364619255066
-0.023380689322948456
-0.2760006785392761
0.027478845790028572
-0.004117258824408054
-0.05415290594100952
0.10003961622714996
-0.18356183171272278
0.034664541482925415
-0.09465302526950836
-0.009137574583292007
-0.016269469633698463
0.004418607801198959
-0.06767721474170685
-0.05925000086426735
-0.027799092233181
-0.08902792632579803
-0.04467293620109558
0.19382132589817047
-0.11060890555381775
-0.11757685244083405
-0.1584300696849823
0.023943912237882614
0.1419956535100937
-0.11823298037052155
-0.1581219881772995
-0.1700633466243744
-0.21974357962608337
-0.12440997362136841
-0.05825649946928024
-0.1307205706834793
-0.13993115723133087
-0.34391412138938904
-0.14158277213573456
-0.02179609052836895
0.12161818891763687
0.009423412382602692
0.03118019364774227
0.1462750881910324
0.09972202777862549
-0.06339868158102036
0.08766592293977737
0.06164158508181572
-0.18631255626678467
0.052691616117954254
0.01215780433267355
0.1389893740415573
0.12453742325305939
0.10614953935146332
-0.11728779226541519
0.126786008477211
0.2620828151702881
0.181697815656662
-0.027972973883152008
-0.1871316283941269
0.07379235327243805
0.0006284405244514346
0.09109218418598175
-0.05338587984442711
0.13155275583267212
-0.0671936497092247
-0.10008256137371063
-0.16591638326644897
-0.08652342110872269
0.07250341773033142
-0.2243272215127945
0.028880808502435684
0.11272759735584259
-0.01085414458066225
0.04320508986711502
-0.1936701238155365
-0.2052350491285324
-0.12664222717285156
-0.2139125019311905
0.07860217988491058
-0.02633293718099594
-0.019513387233018875
0.20046046376228333
-0.16224603354930878
-0.32366862893104553
0.030634773895144463
0.04831903427839279
0.019068317487835884
0.0741148367524147
-0.18619553744792938
0.21238112449645996
-0.0883326530456543
-0.06160306930541992
-0.009708292782306671
-0.05330044403672218
0.16492852568626404
-0.11340681463479996
-0.036326974630355835
0.030023088678717613
-0.05020322650671005
-0.07002457976341248
-0.11810428649187088
-0.03981973975896835
-0.12703724205493927
0.026114484295248985
-0.04329744726419449
-0.016132399439811707
0.004166620783507824
0.2253410369157791
-0.37971267104148865
0.047716107219457626
-0.08555740863084793
-0.2105204313993454
0.054953768849372864
0.008911377750337124
0.08162123709917068
0.036810874938964844
-0.20632046461105347
-8.064576104516163e-05
0.036536864936351776
0.02385927177965641
0.014521757140755653
-0.1341371089220047
-0.06254112720489502
0.10796564817428589
0.01395927369594574
0.07936858385801315
-0.030778028070926666
0.0710810050368309
0.10377331078052521
-0.021011019125580788
0.002387621672824025
-0.2105209082365036
0.013264299370348454
0.06711284071207047
-0.002374179195612669
0.02441457286477089
0.052880022674798965
-0.056970905512571335
-0.035643551498651505
-0.2032337188720703
0.19504596292972565
0.0073966579511761665
0.03320601209998131
0.01768920011818409
0.01860217936336994
0.11794441938400269
-0.09469843655824661
0.03524021431803703
0.022161973640322685
-0.018552936613559723
-0.19103176891803741
-0.012226193211972713
-0.10183282196521759
0.1429010033607483
0.05632837861776352
0.10475216060876846
0.07048287242650986
-0.06860754638910294
-0.28947630524635315
0.08232347667217255
-0.1099676787853241
-0.19615934789180756
-0.018996935337781906
0.08714830875396729
0.060818642377853394
0.07846850156784058
-0.2054494470357895
0.0008363843662664294
0.07075318694114685
0.046012308448553085
0.1388382613658905
-0.0544462725520134
-0.058300137519836426
0.04657526686787605
-0.03930625692009926
0.06415071338415146
0.010276943445205688
-0.19664600491523743
-0.04380042850971222
-0.15854495763778687
0.018282998353242874
0.08678366988897324
0.04964762181043625
-0.07858247309923172
0.0069939144887030125
0.08397623151540756
0.018129192292690277
-0.08925002068281174
0.040373701602220535
0.07513532042503357
0.032071586698293686
-0.04005653038620949
-0.055901069194078445
-0.006253350060433149
-0.03240189328789711
-0.1377996802330017
0.04617081955075264
0.010577717795968056
0.03692851960659027
0.13142341375350952
-0.15492191910743713
-0.19931772351264954
-0.1918243020772934
0.1502538025379181
-0.24964310228824615
0.16801905632019043
0.13261166214942932
-0.11960741877555847
0.05921865627169609
-0.16547487676143646
-0.009200923144817352
0.1564599871635437
-0.01682599075138569
-0.02339683659374714
0.16881142556667328
-0.07553335279226303
-0.1780954897403717
0.06531256437301636
0.0021145986393094063
-0.04944286867976189
-0.1589910238981247
0.0558311864733696
-0.0022303781006485224
-0.2204974740743637
-0.15766169130802155
-0.060485634952783585
0.25242456793785095
0.13166849315166473
0.0010441956110298634
-0.07385007292032242
-0.05342964828014374
0.07674684375524521
0.018240120261907578
0.0875730887055397
-0.03199819102883339
0.08109269291162491
0.17647330462932587
0.09856323897838593
0.05731073394417763
-0.025013040751218796
0.09161049872636795
0.08904372900724411
-0.17635667324066162
-0.18591271340847015
-0.003645464777946472
0.05702664330601692
0.17020277678966522
0.061677541583776474
-0.0708899050951004
-0.05991930142045021
-0.07548774778842926
0.052794814109802246
-0.1358785331249237
-0.2877616882324219
-0.08871307224035263
-0.03191598877310753
0.04229241982102394
0.0012649580603465438
0.09487836062908173
0.0031820095609873533
0.22818753123283386
0.15362834930419922
0.03132176399230957
-0.08272068202495575
0.18057507276535034
0.08978769928216934
-0.04711463302373886
0.02233206294476986
-0.009568075649440289
0.012736581265926361
-0.008532357402145863
0.019598323851823807
-0.014853144995868206
-0.004702795296907425
-0.09681451320648193
-0.0387595109641552
-0.047700364142656326
-0.021474095061421394
0.019979238510131836
0.1818670779466629
0.07183180004358292
0.22950629889965057
-0.03175365552306175
0.08187607675790787
-0.08813624083995819
0.12039527297019958
0.029258031398057938
-0.024171624332666397
-0.05923965945839882
-0.11050092428922653
0.017119189724326134
-0.03349635750055313
-0.04758146405220032
-0.03783002495765686
0.046236615628004074
-0.1572933942079544
-0.05601770430803299
0.026624519377946854
-0.08278044313192368
0.08419463783502579
-0.1627567708492279
-0.017677754163742065
0.04061727225780487
-0.08851515501737595
-0.26214858889579773
0.04189591854810715
0.13560716807842255
0.30228063464164734
-0.13152456283569336
0.11996173858642578
0.07254435122013092
0.05566559359431267
-0.02467666007578373
-0.0005997924599796534
0.12327983230352402
0.026906946673989296
0.08407878130674362
-0.1086871400475502
0.0941358432173729
0.06999020278453827
-0.01914406567811966
0.35963010787963867
-0.12489963322877884
-0.012382935732603073
0.09519743174314499
0.0772721916437149
0.19311486184597015
-0.13806979358196259
-0.006262120790779591
0.013605535961687565
0.004116804804652929
0.18267814815044403
0.017940152436494827
0.05778031051158905
-0.11061032116413116
-0.05393324792385101
-0.04794339835643768
0.19872690737247467
-0.06162642687559128
-0.029364489018917084
-0.09834248572587967
-0.07650116086006165
0.058957938104867935
-0.02533111721277237
0.06493747979402542
-0.029479587450623512
-0.3744148313999176
0.20403262972831726
-0.12582074105739594
-0.15592066943645477
-0.1625984013080597
-0.12507566809654236
0.15227770805358887
-0.26334574818611145
-0.18137863278388977
0.04801681637763977
-0.11279315501451492
0.06370443105697632
-0.14875651895999908
0.15980733931064606
0.09430477023124695
0.033048056066036224
0.031051987782120705
-0.020726362243294716
-0.10073837637901306
0.037903595715761185
0.03871796280145645
-0.03219383582472801
0.08966191858053207
-0.14144864678382874
-0.005625585559755564
0.07776414602994919
-0.1438865065574646
-0.10104826837778091
-0.20393246412277222
0.03916597366333008
0.1979818344116211
0.05494458228349686
-0.23127810657024384
0.12229017168283463
0.05013386905193329
0.017385097220540047
-0.07013094425201416
0.09999320656061172
-0.03607619181275368
0.10587853938341141
0.12749344110488892
0.1323229819536209
-0.041339244693517685
-0.22770360112190247
0.12871918082237244
0.00757655268535018
0.06934961676597595
-0.0030190874822437763
-0.04137982055544853
0.11236631870269775
-0.021714290603995323
-0.04854751378297806
-0.0076233032159507275
-0.13542941212654114
-0.07925517857074738
0.0997328981757164
0.05753173306584358
0.010173660703003407
0.15950919687747955
-0.0718875378370285
0.017030786722898483
-0.22920171916484833
-0.20188210904598236
-0.08265005797147751
-0.05837525427341461
0.006602609530091286
0.11504128575325012
-0.04618411883711815
-0.12624578177928925
0.010359649546444416
0.0014005302218720317
0.032479073852300644
-0.1273692548274994
-0.1791972815990448
-0.12091323733329773
0.06965576857328415
0.11825840175151825
0.00020499143283814192
0.05502554401755333
-0.3190767168998718
0.033269502222537994
0.3564733862876892
-0.09269701689481735
0.048561591655015945
-0.013525222428143024
0.14432521164417267
-0.20298732817173004
-0.04784482344985008
-0.060780562460422516
-0.004225508775562048
0.1768491119146347
-0.24355366826057434
-0.08179746568202972
-0.12403926253318787
-0.08815304189920425
0.21190783381462097
-0.05044614523649216
-0.05661487206816673
0.02881603129208088
0.02387315407395363
0.10395689308643341
0.13515594601631165
0.08522361516952515
0.17815284430980682
0.047654181718826294
0.04938395693898201
0.1376161128282547
0.0687544047832489
0.026492955163121223
-0.005917559843510389
-0.054456427693367004
0.02073337323963642
-0.03723834082484245
-0.02268614061176777
0.03388790786266327
0.003595174290239811
0.033098623156547546
0.03353831544518471
0.002056606113910675
-0.014077846892178059
0.028257735073566437
-0.05534415319561958
-0.017900854349136353
-0.025997968390583992
-0.05845090374350548
-0.051734838634729385
-0.05664399266242981
-0.00923510268330574
-0.00723576545715332
-0.008771688677370548
0.04147179052233696
0.030279148370027542
-0.022112248465418816
-0.013912931084632874
0.018568867817521095
-0.04352938011288643
0.0347694493830204
0.009508361108601093
0.016949594020843506
0.004132616799324751
0.007269060704857111
-0.015944484621286392
-0.0566924624145031
-0.003243362531065941
-0.03432939946651459
-0.05033328756690025
-0.012437848374247551
-0.007279510609805584
-0.03160085901618004
-0.0073824310675263405
-0.05466103553771973
-0.00530726695433259
0.023038435727357864
0.020014861598610878
-0.007464382331818342
-0.021186353638768196
0.007864787243306637
-0.007728417869657278
0.0366494283080101
-0.005857433192431927
0.022987769916653633
-0.0573168583214283
0.037134330719709396
-0.015155722387135029
-0.01501096785068512
-0.030897045508027077
-0.0194711796939373
-0.007845967076718807
0.0024022962898015976
-0.027003450319170952
0.010760309174656868
0.0010275954846292734
-0.01717790961265564
0.023411767557263374
-0.02399822510778904
-0.03817225620150566
-0.032507359981536865
-0.008525406010448933
0.030012724921107292
-0.003035314381122589
-0.016238300129771233
-0.02449040859937668
-0.032208025455474854
-0.04781245440244675
0.0061696916818618774
-0.03397742286324501
-0.042858369648456573
-0.062036048620939255
0.02701535075902939
-0.017695175483822823
-0.02999117225408554
0.028300559148192406
-0.009217394515872002
0.0003048743528779596
0.031146906316280365
0.011206315830349922
-0.05170629546046257
-0.06177259609103203
0.0023604414891451597
-0.0025989720597863197
-0.04264095053076744
-0.03765609487891197
0.02257392928004265
-0.030188357457518578
-0.047561462968587875
-0.013549995608627796
0.003647962585091591
-0.04120062664151192
-0.02397843450307846
0.020886430516839027
0.02199060097336769
-0.04669634997844696
0.029699834063649178
0.004808519501239061
-0.036045294255018234
-0.0048430743627250195
-0.01659066416323185
0.002858154010027647
-0.027274584397673607
-0.021052051335573196
-0.03216885030269623
-0.0012110569514334202
-0.03297695145010948
0.011557305231690407
0.015630125999450684
0.03577834740281105
-0.043231189250946045
0.011531242169439793
0.014606183394789696
-0.0012310828315094113
-0.029179256409406662
0.03262743726372719
0.032216329127550125
-0.03380085527896881
0.007589619141072035
-0.05965219438076019
-0.029843924567103386
-0.04727623984217644
-0.0531548373401165
-0.045037176460027695
0.018162909895181656
-0.037205398082733154
0.031963273882865906
-0.05922676622867584
-0.009018315933644772
-0.057999320328235626
-0.0022741330321878195
0.015839841216802597
-0.02165377140045166
-0.0556807816028595
0.00522514246404171
0.004513136576861143
-0.05202793329954147
-0.015068914741277695
0.014171677641570568
-0.05667790025472641
0.00345062930136919
-0.02781338058412075
0.013304254971444607
-0.014104307629168034
-0.027316920459270477
-0.04691262170672417
0.00912794191390276
0.025430163368582726
-0.05606433004140854
0.03396065905690193
0.02357717789709568
-0.05863995850086212
-0.041904449462890625
-0.04711424931883812
-0.012160793878138065
-0.04904639720916748
0.02188935875892639
-0.011736280284821987
-0.045797333121299744
0.0222940631210804
-0.03391687944531441
-0.03313568979501724
0.012444508261978626
-0.011035661213099957
0.028619013726711273
-0.04839938133955002
0.018238088116049767
0.03111083060503006
-0.008682312443852425
-0.027329422533512115
0.030154574662446976
-0.0541730597615242
-0.002704531652852893
-0.01581505686044693
-0.0045019458048045635
0.0264413021504879
0.0019447988597676158
-0.008458038792014122
-0.0064105684868991375
0.02509317174553871
-0.010888169519603252
0.01907302439212799
-0.0538342148065567
-0.04817426949739456
0.019764890894293785
-0.04859720543026924
-0.034266021102666855
-0.033752091228961945
-0.05612878128886223
-0.05682682991027832
0.029319940134882927
-0.00448992382735014
-0.015211156569421291
-0.0029186203610152006
-0.0006457593408413231
-0.04897254332900047
-0.03988346830010414
-0.008184249512851238
-0.034176506102085114
0.01205156184732914
-0.002248015720397234
-0.029516223818063736
-0.03547648340463638
-0.03833349049091339
0.022775966674089432
-0.04044659063220024
0.03838316723704338
-0.04327975958585739
0.032694313675165176
0.031930357217788696
-0.03279624506831169
0.018251335248351097
-0.0036868283059448004
-0.01835654117166996
-0.04104115813970566
0.010610821656882763
0.000643901526927948
0.006834958679974079
-0.0018830755725502968
-0.04639226198196411
0.03295787796378136
-0.06040940061211586
0.024596866220235825
0.012616273947060108
0.03302973136305809
-0.014490164816379547
-0.01733899675309658
-0.00665562367066741
-0.028619980439543724
0.03445787355303764
-0.00221171323210001
0.03494071215391159
-0.020967667922377586
-0.0003906342026311904
-0.007022282108664513
-0.053332190960645676
-0.049369800835847855
-0.0019126265542581677
0.02532595582306385
0.034037310630083084
0.026900535449385643
-0.05614712834358215
-0.060267381370067596
-0.02940869890153408
-0.014233307912945747
0.016996251419186592
-0.04386039450764656
-0.03775080665946007
-0.024458110332489014
-0.002807121491059661
0.010952910408377647
0.023899013176560402
0.04397568851709366
-0.053942181169986725
-0.027251461520791054
-0.0012736873468384147
-0.04220212623476982
-0.035085100680589676
-0.020019644871354103
0.0046728840097785
-0.0521213561296463
-0.04628100246191025
-0.05191809684038162
0.022543376311659813
0.004739786498248577
0.029916752129793167
-0.04526114836335182
-0.03676491230726242
-0.0561218336224556
0.004601358436048031
0.011207381263375282
0.0025011494290083647
0.023220684379339218
-0.040932390838861465
0.019605319947004318
0.005198115017265081
0.008441810496151447
-0.005789950955659151
0.020789343863725662
0.023983625695109367
0.0030964792240411043
-0.02857975661754608
0.018297841772437096
-0.007800447754561901
-0.011973743326961994
-0.049968939274549484
-0.01951695792376995
0.008179416880011559
-0.010873088613152504
-0.0392315536737442
0.03491586819291115
-0.046045657247304916
0.010500425472855568
0.005483608227223158
0.02210911549627781
-0.048780668526887894
0.04288944602012634
0.023368321359157562
-0.03389531001448631
-0.04991094395518303
-0.0010028865654021502
-0.05686693638563156
-0.047477927058935165
0.005805782042443752
-0.05258584022521973
-0.022799374535679817
0.0033035995438694954
0.0187448188662529
0.035232894122600555
0.002228550147265196
0.007033918052911758
0.012081828899681568
-0.047628119587898254
0.029136989265680313
-0.015760378912091255
-0.0014194071991369128
0.011572645977139473
-0.012182414531707764
-0.04196290671825409
-0.04732374846935272
0.027841495350003242
-0.045275505632162094
-0.004053896758705378
0.01610477641224861
-0.06218873709440231
0.01754424162209034
-0.05015375092625618
-0.05458534508943558
-0.032148756086826324
-0.004825092852115631
0.003830173285678029
-0.05709509178996086
-0.023559682071208954
0.01873730681836605
0.03246387094259262
-0.054295074194669724
-0.030199045315384865
0.0250240508466959
-0.04155295714735985
0.03997071087360382
-0.027472656220197678
-0.011805043555796146
0.010598826222121716
-0.009876260533928871
-0.053585562855005264
-0.029164442792534828
0.03252638131380081
0.0325666181743145
-0.040750350803136826
-0.00920863077044487
-0.025702225044369698
0.022939369082450867
-0.022693106904625893
0.026614924892783165
-0.04912445694208145
0.003322046482935548
-0.020413367077708244
-0.058756023645401
-0.0601067915558815
0.016877591609954834
0.0185552965849638
-0.029159270226955414
-0.02446269802749157
0.009702895767986774
0.01989833451807499
-0.04826182872056961
-0.01644917204976082
-0.011458982713520527
0.0350080169737339
0.010728907771408558
0.02160857804119587
0.012471371330320835
0.012121993117034435
-0.023573603481054306
-0.02921895496547222
0.024336006492376328
-0.056380171328783035
-0.03526632487773895
-0.041902657598257065
-0.0038396308664232492
-0.03712180629372597
-0.0505228191614151
0.029740802943706512
0.018797241151332855
-0.0526234433054924
0.009525885805487633
0.018509631976485252
-0.0003431998484302312
-0.02834087237715721
-0.056465987116098404
-0.03921234607696533
-0.05650942400097847
-0.3755791187286377
-0.2560010552406311
-0.09937381744384766
0.050715457648038864
-0.017006339505314827
-0.09835928678512573
0.07552321255207062
0.07904202491044998
0.016518093645572662
-0.031506650149822235
0.1007767915725708
0.03916529566049576
0.028526611626148224
-0.06741214543581009
0.03932420536875725
0.12366718053817749
0.052598241716623306
0.1115770936012268
-0.16564954817295074
-0.017762411385774612
0.25553545355796814
0.052173465490341187
0.06306267529726028
-0.41626304388046265
-0.09254132211208344
-0.006337445694953203
-0.01922052912414074
-0.046590812504291534
-0.050354599952697754
0.10387790203094482
-0.019861385226249695
-0.005282116588205099
-0.17315907776355743
0.11835561692714691
0.11019332706928253
-0.0807967334985733
0.057852424681186676
-0.0012300311354920268
-0.01732829585671425
0.058394238352775574
-0.08356063812971115
0.11538423597812653
0.004077525343745947
-0.05126021057367325
0.011639982461929321
-0.2301003634929657
-0.053332213312387466
0.013258281163871288
-0.0013645546277984977
0.04946141317486763
-0.16804417967796326
0.0887213870882988
-0.09090740233659744
0.017562124878168106
0.252981573343277
-0.13370127975940704
-0.028338955715298653
0.23635363578796387
0.2253575325012207
0.20848454535007477
-0.2847633957862854
-0.01995811052620411
0.20031248033046722
0.07800110429525375
-0.016086887568235397
-0.09416940063238144
-0.06580820679664612
0.03589925542473793
0.04294358938932419
0.16998369991779327
-0.272596538066864
-0.08872571587562561
0.07963382452726364
0.08539046347141266
0.09511460363864899
-0.1322898417711258
0.03161568567156792
0.13172808289527893
-0.01406626496464014
-0.018887097015976906
0.1192413866519928
0.03655187785625458
0.06275136023759842
-0.08555987477302551
-0.01687648892402649
0.06714867800474167
-0.09823230654001236
0.10751110315322876
0.12828953564167023
0.07803347706794739
-0.011880110017955303
-0.06807290762662888
0.05347253754734993
-0.22601261734962463
-0.05030623823404312
0.10726561397314072
-0.20059238374233246
-0.012679739855229855
-0.3157382011413574
0.01794564351439476
-0.24829497933387756
0.001275952672585845
-0.14589494466781616
-0.06632660329341888
0.07240571826696396
-0.015865596011281013
0.011357806622982025
0.08383045345544815
-0.03707611560821533
0.24931520223617554
0.013975439593195915
0.03069290518760681
0.15347841382026672
-0.055091045796871185
0.10116495937108994
-0.04248449206352234
-0.10241880267858505
0.10832005739212036
-0.04589777812361717
0.11234024167060852
-0.09935849159955978
-0.2243877500295639
-0.009539836086332798
-0.23241256177425385
0.14215287566184998
-0.1640370786190033
-0.12173878401517868
-0.04039929434657097
-0.1555493324995041
0.013681871816515923
0.06055402755737305
0.023561900481581688
0.054321546107530594
-0.003663745243102312
0.046021465212106705
0.005180160515010357
0.22497664391994476
0.004307490307837725
-0.05575152859091759
-0.053124554455280304
-0.11488398164510727
-0.08053365349769592
0.05830208212137222
-0.09775148332118988
-0.13112066686153412
-0.03281869366765022
0.0007386862416751683
0.030809124931693077
-0.14352917671203613
-0.17970868945121765
0.15802402794361115
0.06337405741214752
-0.12095175683498383
-0.02810535579919815
0.02559087984263897
0.05604887753725052
0.11857903003692627
-0.03187985718250275
0.4012027680873871
-0.07595266401767731
-0.14118367433547974
0.11973507702350616
0.21626608073711395
0.12354013323783875
-0.1255316436290741
0.0010791467502713203
0.15898065268993378
-0.012505238875746727
-0.0036347853019833565
0.1321418583393097
-0.13114134967327118
0.08728168159723282
0.10703707486391068
0.0036415252834558487
-0.05506163462996483
0.020402884110808372
-0.013199609704315662
0.09320543706417084
0.021567102521657944
-0.0899176299571991
0.007188908755779266
-0.0006768670282326639
0.00046965741785243154
-0.015548220835626125
-0.08860678225755692
-0.019309982657432556
0.06942083686590195
0.003524655243381858
-0.02620675414800644
-0.04082826152443886
-0.08380136638879776
0.03840574994683266
-0.017069773748517036
-0.0313817635178566
-0.1883561760187149
-0.008970444090664387
0.09697520732879639
0.18369223177433014
0.06243538483977318
-0.14415277540683746
-0.043948639184236526
-0.09785513579845428
0.13940325379371643
-0.2257000058889389
-0.07712387293577194
0.01815391145646572
-0.3115387260913849
0.09157530218362808
0.001009359722957015
-0.010033100843429565
-0.32486364245414734
0.07300902158021927
0.11884743720293045
0.14146490395069122
0.08034437149763107
-0.35022807121276855
0.2135627418756485
0.1694822758436203
0.06955168396234512
-0.012245378457009792
-0.09042242914438248
-0.02729787491261959
0.09431245923042297
-0.05557291954755783
-0.09918153285980225
-0.10169409215450287
0.024630693718791008
-0.006825230084359646
0.010242060758173466
-0.178956538438797
0.11830596625804901
0.11951333284378052
-0.014188457280397415
0.09609877318143845
-0.10727661848068237
0.050375647842884064
0.12912622094154358
0.14892327785491943
0.16727882623672485
-0.07664437592029572
-0.09761931747198105
0.06508053094148636
0.07263796031475067
0.1000245064496994
-0.09141834825277328
-0.11632612347602844
0.09935299307107925
0.11593539267778397
0.03369893133640289
-0.12859587371349335
-0.03474494814872742
-0.4995640218257904
-0.247523695230484
-0.24411135911941528
-0.011970107443630695
-0.17632903158664703
-0.29887881875038147
0.06816422194242477
-0.045700740069150925
-0.011530837044119835
-0.38961488008499146
0.0008482739794999361
0.1087140440940857
0.03187713027000427
-0.11317562311887741
-0.0704406201839447
0.1645706444978714
0.010610251687467098
0.13556663691997528
0.011868409812450409
-0.0461563840508461
0.08382318913936615
-0.1184830367565155
0.08822116255760193
-0.2991652190685272
-0.032346971333026886
0.04767672345042229
0.13244225084781647
-0.0004016856546513736
-0.10726919770240784
0.09417633712291718
0.07963450998067856
0.04582083225250244
0.012791462242603302
0.028780223801732063
0.034550849348306656
0.11956743150949478
-0.020922325551509857
0.08798561990261078
-0.039438411593437195
-0.1119903102517128
0.10099822282791138
-0.09164122492074966
0.13894285261631012
0.009677008725702763
-0.03787677735090256
-0.06852176040410995
0.03151032701134682
0.06302623450756073
0.05913475528359413
-0.16061095893383026
-0.05171336978673935
-0.11665452271699905
0.02816813997924328
0.18202021718025208
-0.1941845864057541
-0.25189173221588135
0.05975627899169922
0.010574397630989552
-0.08077691495418549
-0.14026007056236267
0.08978167921304703
0.06620348244905472
0.03788371756672859
-0.13190336525440216
0.048979781568050385
-0.04043939337134361
-0.06973224133253098
-0.021748872473835945
0.044299278408288956
-0.02739892341196537
-0.015076659619808197
-0.03703918308019638
-0.09471581876277924
-0.06641760468482971
-0.3814414441585541
-0.14768505096435547
0.15819087624549866
0.08213181793689728
0.07882101833820343
-0.1727052628993988
-0.07158491760492325
0.004689428955316544
-0.03774981200695038
-0.0769914984703064
0.08795221149921417
-0.05234036594629288
-0.03376845270395279
-0.07504339516162872
0.0130574656650424
0.05721406266093254
-0.05971271172165871
-0.02921473979949951
0.11941976845264435
0.1828121542930603
0.13416314125061035
0.049467213451862335
-0.31914904713630676
0.09454748034477234
0.008416595868766308
-0.18592406809329987
0.017028789967298508
0.08690095692873001
0.06554152071475983
0.08858893811702728
0.01083908136934042
0.12937842309474945
0.005143717862665653
-0.056142933666706085
-0.019523736089468002
0.08157971501350403
-0.05927589163184166
-0.021318066865205765
0.05043860524892807
0.06722705066204071
0.075339175760746
0.15379288792610168
0.20600953698158264
0.15115182101726532
0.015004204586148262
0.028335073962807655
-0.0037694473285228014
-0.006672818213701248
0.1776047646999359
0.14601171016693115
-0.0377018041908741
0.00875028409063816
-0.01921839267015457
0.07233688980340958
-0.050485532730817795
0.06303932517766953
0.2135239839553833
0.043596863746643066
0.1436901092529297
0.026229064911603928
0.1891869306564331
0.22681304812431335
-0.10329800099134445
0.09500721096992493
-0.030195951461791992
-0.04196387901902199
0.028299031779170036
-0.03309042751789093
0.23022344708442688
-0.03365179896354675
-0.08705778419971466
0.04115923121571541
0.1524583101272583
0.2151976376771927
0.030352381989359856
0.16019852459430695
0.09656184166669846
0.0815051719546318
-0.11072374135255814
0.12932230532169342
-0.10965552926063538
-0.12037735432386398
0.04514368623495102
0.029918240383267403
-0.023204563185572624
-0.1131354421377182
-0.07096176594495773
-0.05023959279060364
-0.002065130043774843
-0.010816249065101147
0.04418829828500748
-0.06959455460309982
0.04658854752779007
0.030647912994027138
-0.0279296413064003
0.03243061155080795
-0.150645911693573
0.18007856607437134
0.03364774212241173
-0.0206065084785223
-0.02877653017640114
-0.044129952788352966
0.09254524111747742
-0.10455778986215591
0.023344403132796288
-0.05719391256570816
-0.030140163376927376
-0.05675191059708595
-0.18942028284072876
0.14496009051799774
-0.013667594641447067
-0.06592731177806854
0.0855957567691803
-0.0395316556096077
-0.055690910667181015
-0.014246705919504166
0.07645221054553986
0.06049943342804909
0.0687917172908783
-0.22613632678985596
-0.11746547371149063
-0.12845377624034882
0.03749779984354973
-0.059418417513370514
-0.22576142847537994
-0.020234964787960052
0.056420933455228806
0.10369087010622025
0.15649567544460297
-0.055752694606781006
0.025642074644565582
0.08603369444608688
-0.1944105625152588
-0.09887697547674179
0.08120384067296982
-0.033124469220638275
0.0017832688754424453
-0.07823880761861801
-0.22463485598564148
-0.18156962096691132
-0.04647597670555115
0.057243552058935165
-0.07256297767162323
0.05976666137576103
-0.008469056338071823
0.17958921194076538
0.05362958461046219
-0.19756397604942322
-0.1448885202407837
0.0070865279994904995
-0.02595357410609722
-0.003960079979151487
-0.0018050777725875378
0.04038238897919655
0.10331878066062927
-0.11787477135658264
-0.026144642382860184
-0.07105856388807297
-0.07728695124387741
0.004347389098256826
-0.23257717490196228
-0.02402406558394432
0.003425012109801173
-0.04203147441148758
0.03755800426006317
-0.041150566190481186
0.03782033920288086
-0.06702335178852081
-0.13945655524730682
0.10321617126464844
0.13489428162574768
-0.03231123462319374
0.03979044407606125
0.0035228885244578123
-0.127389058470726
-0.02511557750403881
-0.050089139491319656
0.15483307838439941
-0.026062078773975372
-0.24208758771419525
-0.09722670167684555
0.01047530211508274
0.08456607162952423
0.09104131907224655
0.01553043257445097
-0.005512491799890995
0.07509948313236237
0.060619648545980453
0.07322122156620026
-0.1165657490491867
0.03063691221177578
-0.1356552690267563
-0.023633047938346863
0.024184061214327812
-0.11879396438598633
-0.08652129769325256
0.04294704273343086
-0.03866538032889366
-0.0043016886338591576
-0.15855684876441956
0.05540024861693382
0.08938298374414444
-0.17077653110027313
-0.01991351507604122
-0.023084141314029694
0.06982152909040451
0.13157586753368378
-0.001237289747223258
0.08225568383932114
0.02522183768451214
0.04416749253869057
-0.1631220132112503
-0.20593580603599548
0.012877444736659527
0.022983776405453682
0.044185344129800797
-0.1667017936706543
-0.005498465150594711
0.013438344933092594
0.09097103774547577
0.04137348756194115
-0.17445702850818634
-0.007460146676748991
0.04103458300232887
0.037095919251441956
-0.24192877113819122
-0.16005617380142212
0.23382358253002167
-0.10740976780653
0.06808387488126755
-0.02286861464381218
-0.004711514338850975
0.31017056107521057
0.05063565820455551
0.03178262710571289
0.06625522673130035
-0.18458430469036102
0.15793389081954956
0.20061978697776794
-0.019699569791555405
-0.04575545713305473
0.08410773426294327
0.07669273763895035
0.1552293300628662
0.06410074979066849
-0.13953417539596558
-0.1613697111606598
0.035752784460783005
0.0557112954556942
-0.08750542998313904
-0.05842513218522072
-0.1695864200592041
-0.03171273320913315
-0.017732514068484306
0.05459372699260712
-0.004821151960641146
-0.100384920835495
-0.046033840626478195
-0.068812295794487
-0.06057312712073326
-0.016450898721814156
0.05737321078777313
0.1827106773853302
0.08906342089176178
0.06448284536600113
0.09070391952991486
0.07976927608251572
0.16122359037399292
0.13972747325897217
-0.06534912437200546
-0.11839654296636581
0.13210949301719666
0.2796327769756317
0.01887662149965763
0.018470024690032005
-0.09951547533273697
0.009695487096905708
-0.1327316015958786
-0.017222274094820023
0.15370523929595947
0.13849297165870667
0.21880541741847992
0.3493083119392395
0.012108635157346725
0.00363996927626431
0.1832413226366043
-0.02231682278215885
0.13408339023590088
-0.07074686139822006
0.05889922380447388
0.10916543006896973
0.04412787780165672
-0.02946304716169834
-0.029760384932160378
0.023524634540081024
-0.06626256555318832
0.05774548649787903
-0.20395410060882568
-0.25453969836235046
0.021024217829108238
0.08499277383089066
-0.0949959009885788
-0.19426435232162476
-0.039277322590351105
0.0649239793419838
-0.008410000242292881
-0.0028057037852704525
0.08029982447624207
-0.0010670070769265294
0.048679422587156296
-0.008516546338796616
-0.11042860895395279
-0.12158717960119247
0.02746209129691124
0.10280671715736389
-0.007028747815638781
0.06460537761449814
-0.3493373394012451
-0.03959055244922638
0.022628815844655037
0.017568571493029594
0.1189194843173027
-0.3077578544616699
0.018284142017364502
0.00018984060443472117
-0.06760434806346893
0.0507625974714756
0.09556840360164642
0.08073274046182632
0.044218312948942184
0.10922972857952118
0.10042790323495865
-0.029909709468483925
-0.03464705869555473
0.1192820742726326
0.14691615104675293
-0.07707978039979935
0.02739766798913479
0.045539237558841705
0.04578917473554611
0.02699953131377697
-0.09159765392541885
-0.03981306403875351
-0.1331757754087448
0.09477204084396362
0.022448187693953514
0.08405395597219467
-0.0344211608171463
-0.22289101779460907
0.04857444763183594
-0.10668399184942245
-0.1969621479511261
0.09965171664953232
0.1233932301402092
-0.23162801563739777
-0.09003499150276184
-0.09673791378736496
0.008873473852872849
0.0839252918958664
-0.04270932078361511
-0.10500079393386841
0.09766020625829697
0.17362743616104126
0.12780657410621643
0.13822735846042633
-0.009450207464396954
0.055295441299676895
0.07937516272068024
0.0988740548491478
0.024410640820860863
-0.2052425742149353
-0.14560279250144958
0.13889180123806
0.11720677465200424
-0.06228581815958023
0.1392792910337448
-0.1391076147556305
-0.10833016037940979
0.05947763845324516
0.11844898760318756
0.0854412168264389
0.03128451853990555
0.2363022267818451
0.04437638819217682
-0.1925704926252365
-0.0007683970034122467
0.0709577277302742
-0.010259702801704407
0.13228292763233185
-0.007731774356216192
-0.03658662363886833
0.058007095009088516
0.10559996217489243
0.10304408520460129
-0.0967269018292427
0.064250148832798
0.06521781533956528
-0.028615960851311684
-0.0340842641890049
-0.06566965579986572
0.03171500563621521
-0.0995122566819191
-0.10218359529972076
-0.077500119805336
0.033838510513305664
-0.09728457778692245
0.03242212533950806
-0.08458261936903
-0.11198219656944275
-0.10793337970972061
-0.12700515985488892
-0.16104263067245483
0.04965844377875328
-0.024655256420373917
-0.10561952739953995
-0.07975088059902191
0.07523228973150253
-0.05843869224190712
0.08419851213693619
0.34029316902160645
-0.12969575822353363
0.07270149141550064
0.1391121745109558
-0.1431557685136795
0.07644582539796829
0.08949586004018784
0.012061547487974167
-0.058830272406339645
0.09707310050725937
-0.044683169573545456
-0.14837704598903656
-0.044553615152835846
0.09676938503980637
0.048360757529735565
-0.23516055941581726
-0.1513729989528656
0.028293121606111526
0.07467370480298996
0.045403853058815
0.00779697485268116
-0.056568458676338196
-0.07037648558616638
0.13293235003948212
0.018636083230376244
-0.12300191819667816
-0.07197926193475723
0.08670254796743393
0.16559554636478424
0.03478647395968437
0.14040875434875488
0.10634178668260574
-0.1361287385225296
0.0329584926366806
-0.1320033222436905
-0.06842365860939026
-0.055419277399778366
-0.06920111179351807
0.04996106028556824
0.023821983486413956
0.11278382688760757
-0.07617756724357605
-0.10228977352380753
0.08763083070516586
0.003014975693076849
0.02913474105298519
0.0004464694357011467
-0.035819776356220245
0.04036523774266243
0.08065401017665863
0.023215383291244507
0.1272413283586502
0.13775816559791565
-0.08299002796411514
0.13587705790996552
0.2475113570690155
0.0009854621021077037
-0.06077300012111664
0.03435792773962021
0.06519829481840134
0.29409852623939514
-0.14059340953826904
-0.1686350256204605
0.022135019302368164
-0.08970270305871964
-0.031117573380470276
-0.28500092029571533
-0.053309474140405655
0.05778098851442337
0.013598000630736351
-0.05671722814440727
-0.10196090489625931
0.014942602254450321
0.0940094143152237
0.11952179670333862
-0.06781063973903656
0.13768650591373444
0.12272603809833527
0.04690367728471756
-0.05583621561527252
-0.06609215587377548
0.001180893974378705
-0.05201559141278267
0.06937342137098312
0.05683710053563118
0.10769729316234589
-0.025365976616740227
-0.11569169163703918
0.13758902251720428
-0.14105647802352905
-0.1155630573630333
-0.08170142769813538
-0.04707765206694603
-0.012471728026866913
-0.091117262840271
0.05508701130747795
0.03836441412568092
-0.07213449478149414
-0.05106852948665619
0.010874555446207523
-0.07386866956949234
-0.035584110766649246
-0.02579030580818653
0.09748479723930359
0.0015752239851281047
-0.06416143476963043
-0.05084645003080368
-0.1341262310743332
-0.04009329155087471
-0.21877172589302063
-0.07492280751466751
-0.05387077480554581
0.025966355577111244
-0.16912741959095
-0.1310151219367981
0.29110637307167053
-0.023109283298254013
0.06489560008049011
-0.008876150473952293
0.07023122161626816
0.08792034536600113
0.030770916491746902
0.0223318450152874
-0.1236569806933403
-0.024639416486024857
0.036850783973932266
0.11552692204713821
-0.1175537183880806
0.004147546831518412
-0.23729383945465088
-0.0605459101498127
0.22064290940761566
0.01843200996518135
0.2381320744752884
0.03690456226468086
0.11859745532274246
0.10335873812437057
0.04070024937391281
-0.012152920477092266
0.01476972084492445
-0.10658928006887436
-0.05518467724323273
-0.06758661568164825
-0.04526261240243912
-0.1115671843290329
-0.10991618037223816
-0.13949981331825256
0.05448928102850914
-0.046794939786195755
0.07143331319093704
-0.03475894033908844
-0.01728641241788864
0.11386575549840927
-0.2950303256511688
0.03225548192858696
-0.21714113652706146
-0.0888085588812828
-0.011713477782905102
0.06524354964494705
-0.13716745376586914
-0.06252209842205048
-0.128732368350029
-0.06449100375175476
0.08038803935050964
-0.28602200746536255
0.007694805972278118
0.021588360890746117
0.06274737417697906
0.1072327122092247
-0.17672383785247803
0.06524401158094406
0.04682064428925514
0.07893464714288712
0.07822022587060928
-0.18207357823848724
0.022804468870162964
0.17474788427352905
-0.041819337755441666
0.08767416328191757
-0.03519166260957718
-0.04029024392366409
0.1910976767539978
0.10796831548213959
-0.13293573260307312
-0.062492821365594864
0.010346652008593082
-0.029758121818304062
0.14511819183826447
-0.03795512393116951
0.02942812629044056
0.0030519221909344196
-0.17359685897827148
0.026780642569065094
-0.023982474580407143
-0.013100146315991879
-0.08221076428890228
-0.08125089854001999
0.08157309144735336
-0.03386152163147926
0.017690090462565422
-0.13230487704277039
-0.01704757660627365
-0.15657806396484375
0.09747377783060074
0.05510290339589119
-0.15385130047798157
-0.16102726757526398
-0.17366760969161987
0.1493261456489563
0.0029931189492344856
0.07339458912611008
0.0630989521741867
-0.07125075906515121
-0.08409198373556137
0.09661483764648438
0.16032224893569946
-0.02104182355105877
-0.08300638943910599
0.038644906133413315
0.09079453349113464
0.14180651307106018
-0.06617309898138046
-0.13260340690612793
-0.07230676710605621
0.1370783895254135
-0.13102275133132935
0.0025141090154647827
-0.09734006226062775
0.038382839411497116
0.03634212538599968
-0.138492614030838
0.05307867005467415
0.07659818232059479
0.19652043282985687
0.08850136399269104
-0.11417256295681
-0.005134935490787029
-0.05261638015508652
0.023997370153665543
-0.08081000298261642
-0.09871601313352585
0.034025441855192184
-0.14257730543613434
-0.05862713232636452
-0.1503598392009735
0.06299834698438644
-0.09455277025699615
0.04983332380652428
0.14455130696296692
0.07047048211097717
0.07369466871023178
0.025357834994792938
0.17599117755889893
0.18667149543762207
0.04860007390379906
0.0989176481962204
0.01958572305738926
0.25206708908081055
0.13395516574382782
0.012085980735719204
-0.015433105640113354
0.3656267523765564
-0.027474893257021904
-0.010598490945994854
0.044417209923267365
0.07952188700437546
0.10982532054185867
0.006011019926518202
-0.10662110894918442
0.011316093616187572
0.09988211840391159
-0.035654857754707336
0.008896693587303162
-0.048512574285268784
-0.04019206389784813
0.03667830303311348
-0.06471424549818039
-0.1443265676498413
0.14356128871440887
-0.09454599767923355
0.013526949100196362
-0.05397544801235199
-0.03717629238963127
0.20275065302848816
0.1759261190891266
-0.03471021726727486
-0.06327633559703827
-0.12107507139444351
0.06152767688035965
-0.06083886697888374
-0.052998896688222885
-0.1082291305065155
-0.19255608320236206
-0.11034800857305527
0.0618121363222599
-0.01579837128520012
-0.04546093940734863
-0.08540336042642593
-0.10201927274465561
0.06908077746629715
0.09249059855937958
0.04505469650030136
0.01700972206890583
-0.2486582100391388
0.09805133938789368
0.11500225216150284
0.08317525684833527
0.054659534245729446
0.159376323223114
-0.016785282641649246
-0.09327995032072067
0.07424484193325043
-0.06513749063014984
-0.1963331550359726
-0.04933781176805496
-0.03748059645295143
-0.010008376091718674
-0.08950573205947876
0.053040485829114914
0.09141185879707336
0.06797347962856293
-0.1129818856716156
-0.05763174593448639
0.00915574375540018
0.02889068052172661
0.03659529983997345
-0.06626905500888824
0.001969775417819619
0.07202824205160141
-0.04201363027095795
0.06135354936122894
-0.07907668501138687
0.03812729939818382
-0.1676950752735138
0.09717807173728943
-0.0447593629360199
-0.14486531913280487
-0.06056539714336395
-0.20820865035057068
-0.01747378520667553
-0.09186329692602158
0.001252946094609797
0.003550601424649358
-0.04456082358956337
-0.05766672268509865
0.126613050699234
0.09491351991891861
-0.025478579103946686
0.0486421138048172
0.07553447782993317
0.1262337565422058
0.13911859691143036
-0.044547948986291885
0.0316813625395298
0.1924329400062561
-0.027974016964435577
0.06826788932085037
-0.06491708010435104
0.17156143486499786
0.0770077258348465
0.19333845376968384
-0.012760289013385773
0.059929411858320236
0.05422176420688629
0.06866959482431412
0.014638906344771385
0.10770615190267563
-0.11694733053445816
-0.06996691972017288
-0.01951913721859455
0.05270327255129814
-0.2577376663684845
-0.1388958990573883
0.07637472450733185
-0.30032187700271606
-0.1359798014163971
-0.04450833052396774
0.24168790876865387
0.02628900483250618
-0.02690439112484455
-0.1777103692293167
0.08392433077096939
0.020056191831827164
0.07773537188768387
0.2131701409816742
-0.046872470527887344
0.1719813495874405
0.18890894949436188
0.04866282269358635
-0.0500398613512516
-0.0700673758983612
0.08470599353313446
0.0018164734356105328
-0.12506122887134552
-0.04239889606833458
-0.047728609293699265
-0.05818748101592064
-0.06632835417985916
0.016899820417165756
-0.20264798402786255
-0.002306796843186021
0.1899844855070114
0.11987438797950745
0.023610061034560204
-0.2730250060558319
0.025961413979530334
0.00913483276963234
0.06526883691549301
0.04664796218276024
0.21419015526771545
0.07253008335828781
-0.14295673370361328
-0.13270725309848785
0.11503665894269943
0.07442764937877655
0.07625202089548111
-0.09487273544073105
-0.09369999915361404
-0.013385852798819542
0.14613831043243408
-0.03177959471940994
0.035591110587120056
-0.0453806072473526
-0.1430538445711136
0.023519301787018776
0.010558981448411942
0.32327795028686523
-0.03403473272919655
-0.05161502957344055
0.022923942655324936
0.02882218547165394
-0.057445231825113297
-0.007507077418267727
-0.0114094577729702
0.026894694194197655
-0.11016479879617691
-0.05201694741845131
-0.04094746708869934
-0.018418198451399803
0.036931753158569336
0.01585957780480385
-0.02064264565706253
0.000466560130007565
0.13263766467571259
0.18679414689540863
-0.009058858267962933
0.037304919213056564
0.07872079312801361
0.06268801540136337
0.1110348328948021
0.14409080147743225
-0.0020109384786337614
0.16599251329898834
-0.25185564160346985
-0.005896526854485273
0.09864559024572372
-0.011387786827981472
0.037534888833761215
-0.029810845851898193
-0.19928449392318726
-0.1678452342748642
0.06948014348745346
0.14217522740364075
-0.16004003584384918
-0.03569618612527847
-0.11043814569711685
0.024529580026865005
0.23014363646507263
-0.12528109550476074
0.00811145268380642
-0.03936544805765152
-0.006986423395574093
0.015580118633806705
0.0450163371860981
-0.14267641305923462
0.014368950389325619
-0.014355513267219067
-0.1707027107477188
0.2870806157588959
-0.16904795169830322
0.0627753734588623
0.01184117328375578
0.08064061403274536
-0.07266240566968918
0.26679274439811707
-0.26644086837768555
-0.03864388167858124
-0.06159692257642746
-0.08180331438779831
-0.07322070747613907
-0.3381953537464142
-0.1084863543510437
-0.02063271775841713
0.0978885069489479
-0.06010861694812775
-0.09679900109767914
-0.11903247237205505
0.02270227111876011
0.26555290818214417
0.012860364280641079
0.15176311135292053
-0.2052026242017746
0.164149209856987
-0.07249060273170471
0.03156377747654915
0.1538947969675064
-0.033866092562675476
-0.005753542296588421
0.1481422483921051
-0.2846623659133911
-0.04283072426915169
-0.042780302464962006
-0.025018705055117607
-0.09811685234308243
0.1265658736228943
-0.12991800904273987
0.023449396714568138
0.08422140777111053
-0.12759089469909668
0.15344712138175964
-0.04764488339424133
-0.08745073527097702
0.07848240435123444
-0.05680598318576813
-0.026494162157177925
-0.06783982366323471
-0.11574066430330276
0.0647987425327301
-0.055297788232564926
-0.015219444409012794
0.032239966094493866
0.04877064377069473
-0.035464346408843994
-0.0881621316075325
0.04709688201546669
-0.08196289092302322
0.09322172403335571
-0.1558968871831894
-0.015251017175614834
-0.11025326699018478
-0.04355287551879883
-0.04309369623661041
-0.02191195823252201
0.11395639926195145
-0.027905888855457306
0.1497781127691269
0.10083755850791931
-0.1164560616016388
0.15276053547859192
0.12675794959068298
0.17173656821250916
0.23188719153404236
0.10168612748384476
0.39245712757110596
-0.027532251551747322
0.16014018654823303
-0.0022433807607740164
0.05678147077560425
-0.1461414247751236
-0.20104345679283142
-0.009172843769192696
0.0809585452079773
0.015241697430610657
0.07086876779794693
0.13115574419498444
-0.32238659262657166
0.029013678431510925
-0.028222575783729553
-0.09324321895837784
-0.025070782750844955
-0.18214736878871918
-0.11257196217775345
0.12188272923231125
0.001102059381082654
-0.03744570165872574
0.10748714208602905
-0.1962592750787735
0.09752708673477173
0.10929203033447266
-0.22331984341144562
0.33129581809043884
0.05243198201060295
-0.03851822018623352
0.3215082883834839
-0.008260915987193584
-0.043272361159324646
-0.04462739825248718
-0.0005798637866973877
-0.0077948798425495625
-0.0917842835187912
0.0024663780350238085
-0.07232296466827393
0.10101264715194702
0.0785326361656189
0.05685988441109657
0.046898920089006424
0.07336979359388351
0.2296852022409439
0.07143467664718628
-0.025029029697179794
0.01572199910879135
0.19030335545539856
0.2762894630432129
0.2910551130771637
-0.014566215686500072
-0.0010323278838768601
0.12603774666786194
-0.09383391588926315
-0.031238561496138573
0.3444952964782715
0.058135632425546646
0.031752340495586395
0.04967571422457695
-0.15613669157028198
-0.037515997886657715
-0.037668049335479736
-0.046615805476903915
0.21828369796276093
-0.18706150352954865
0.008103132247924805
-0.0957207977771759
-0.13212335109710693
0.06350275874137878
-0.033313002437353134
-0.06137479096651077
0.0563514307141304
-0.10480152070522308
0.046483077108860016
-0.3353266417980194
-0.13794194161891937
0.1253764033317566
0.1556624472141266
-0.035702601075172424
-0.45968571305274963
-0.04752637818455696
0.030942728742957115
0.13606354594230652
0.0986560583114624
-0.12215586006641388
-0.11832959204912186
0.015912679955363274
-0.05480857565999031
-0.013814943842589855
-0.007921421900391579
-0.1580704152584076
0.10083688050508499
-0.03337658941745758
0.04414959251880646
-0.10206404328346252
-0.08301684260368347
-0.01999688893556595
0.03396110236644745
-0.010673310607671738
-0.23751556873321533
0.23184964060783386
-0.10796575993299484
-0.07987943291664124
-0.30974677205085754
0.06422872096300125
0.28609326481819153
-0.048154573887586594
-0.12329217791557312
-0.07276070863008499
-0.08417318761348724
-0.39140015840530396
-0.051262158900499344
-0.10624498873949051
0.0015305293491110206
0.17638742923736572
-0.01070774532854557
0.07115672528743744
-0.04542476311326027
-0.0026138480752706528
0.26977384090423584
-0.023715976625680923
0.09189987927675247
0.24425850808620453
0.0389859639108181
0.12681631743907928
0.19312389194965363
0.1306915283203125
0.01241132989525795
0.1781943142414093
-0.33908870816230774
0.06965871900320053
0.035950880497694016
-0.04593383148312569
-0.08249634504318237
0.12640021741390228
-0.0998176634311676
-0.014830575324594975
-0.16288889944553375
-0.07690060138702393
0.15832962095737457
-0.013905145227909088
-0.037891872227191925
-0.1013241708278656
-0.037179477512836456
0.200480654835701
-0.012160884216427803
0.05116717144846916
-0.039785776287317276
0.09549759328365326
0.17812231183052063
0.11174958199262619
-0.05164802446961403
-0.22352653741836548
-0.15075309574604034
-0.028085501864552498
-0.16372132301330566
0.018398016691207886
-0.13360214233398438
0.004264802671968937
0.009417886845767498
-0.09777657687664032
0.004964683670550585
-0.003771070856601
-0.02240818180143833
0.09430555254220963
-0.1430390626192093
0.025807904079556465
0.09603796154260635
0.002490332815796137
0.07461872696876526
0.08730032294988632
0.006025189068168402
0.15564243495464325
-0.1426319032907486
0.012412633746862411
0.1957968771457672
-0.07809527963399887
0.13312937319278717
-0.000227326963795349
0.11768536269664764
0.011610149405896664
0.2929058372974396
0.06428926438093185
-0.07272166013717651
